digraph Tree {
node [shape=box] ;
0 [label="#climatechange <= 0.5\nentropy = 1.0\nsamples = 1200\nvalue = [604, 596]"] ;
1 [label="change <= 0.5\nentropy = 0.996\nsamples = 1037\nvalue = [558, 479]"] ;
0 -> 1 [labeldistance=2.5, labelangle=45, headlabel="True"] ;
2 [label="communities #standupforscience <= 0.5\nentropy = 0.921\nsamples = 479\nvalue = [318, 161]"] ;
1 -> 2 ;
3 [label="companies <= 0.5\nentropy = 0.905\nsamples = 465\nvalue = [316, 149]"] ;
2 -> 3 ;
4 [label="climate <= 0.5\nentropy = 0.891\nsamples = 454\nvalue = [314, 140]"] ;
3 -> 4 ;
5 [label="stop <= 0.5\nentropy = 0.866\nsamples = 420\nvalue = [299, 121]"] ;
4 -> 5 ;
6 [label="planet <= 0.5\nentropy = 0.876\nsamples = 409\nvalue = [288, 121]"] ;
5 -> 6 ;
7 [label="read <= 0.5\nentropy = 0.864\nsamples = 398\nvalue = [284, 114]"] ;
6 -> 7 ;
8 [label="like <= 0.5\nentropy = 0.872\nsamples = 386\nvalue = [273, 113]"] ;
7 -> 8 ;
9 [label="need <= 0.5\nentropy = 0.884\nsamples = 361\nvalue = [252, 109]"] ;
8 -> 9 ;
10 [label="entropy = 0.874\nsamples = 350\nvalue = [247, 103]"] ;
9 -> 10 ;
11 [label="entropy = 0.994\nsamples = 11\nvalue = [5, 6]"] ;
9 -> 11 ;
12 [label="entropy = 0.634\nsamples = 25\nvalue = [21, 4]"] ;
8 -> 12 ;
13 [label="entropy = 0.414\nsamples = 12\nvalue = [11, 1]"] ;
7 -> 13 ;
14 [label="entropy = 0.946\nsamples = 11\nvalue = [4, 7]"] ;
6 -> 14 ;
15 [label="entropy = 0.0\nsamples = 11\nvalue = [11, 0]"] ;
5 -> 15 ;
16 [label="entropy = 0.99\nsamples = 34\nvalue = [15, 19]"] ;
4 -> 16 ;
17 [label="entropy = 0.684\nsamples = 11\nvalue = [2, 9]"] ;
3 -> 17 ;
18 [label="entropy = 0.592\nsamples = 14\nvalue = [2, 12]"] ;
2 -> 18 ;
19 [label="don <= 0.5\nentropy = 0.986\nsamples = 558\nvalue = [240, 318]"] ;
1 -> 19 ;
20 [label="global warming <= 0.5\nentropy = 0.989\nsamples = 545\nvalue = [239, 306]"] ;
19 -> 20 ;
21 [label="years <= 0.5\nentropy = 0.986\nsamples = 535\nvalue = [230, 305]"] ;
20 -> 21 ;
22 [label="report climate <= 0.5\nentropy = 0.991\nsamples = 502\nvalue = [223, 279]"] ;
21 -> 22 ;
23 [label="like <= 0.5\nentropy = 0.993\nsamples = 489\nvalue = [221, 268]"] ;
22 -> 23 ;
24 [label="michael <= 0.5\nentropy = 0.996\nsamples = 462\nvalue = [214, 248]"] ;
23 -> 24 ;
25 [label="https <= 1.5\nentropy = 0.994\nsamples = 451\nvalue = [205, 246]"] ;
24 -> 25 ;
26 [label="trump <= 0.5\nentropy = 0.997\nsamples = 433\nvalue = [202, 231]"] ;
25 -> 26 ;
27 [label="entropy = 0.999\nsamples = 409\nvalue = [196, 213]"] ;
26 -> 27 ;
28 [label="entropy = 0.811\nsamples = 24\nvalue = [6, 18]"] ;
26 -> 28 ;
29 [label="entropy = 0.65\nsamples = 18\nvalue = [3, 15]"] ;
25 -> 29 ;
30 [label="entropy = 0.684\nsamples = 11\nvalue = [9, 2]"] ;
24 -> 30 ;
31 [label="entropy = 0.826\nsamples = 27\nvalue = [7, 20]"] ;
23 -> 31 ;
32 [label="entropy = 0.619\nsamples = 13\nvalue = [2, 11]"] ;
22 -> 32 ;
33 [label="entropy = 0.746\nsamples = 33\nvalue = [7, 26]"] ;
21 -> 33 ;
34 [label="entropy = 0.469\nsamples = 10\nvalue = [9, 1]"] ;
20 -> 34 ;
35 [label="entropy = 0.391\nsamples = 13\nvalue = [1, 12]"] ;
19 -> 35 ;
36 [label="catastrophic <= 0.5\nentropy = 0.858\nsamples = 163\nvalue = [46, 117]"] ;
0 -> 36 [labeldistance=2.5, labelangle=-45, headlabel="False"] ;
37 [label="climate <= 0.5\nentropy = 0.918\nsamples = 108\nvalue = [36, 72]"] ;
36 -> 37 ;
38 [label="report <= 0.5\nentropy = 0.928\nsamples = 96\nvalue = [33, 63]"] ;
37 -> 38 ;
39 [label="https <= 0.5\nentropy = 0.922\nsamples = 83\nvalue = [28, 55]"] ;
38 -> 39 ;
40 [label="entropy = 0.903\nsamples = 47\nvalue = [15, 32]"] ;
39 -> 40 ;
41 [label="entropy = 0.944\nsamples = 36\nvalue = [13, 23]"] ;
39 -> 41 ;
42 [label="entropy = 0.961\nsamples = 13\nvalue = [5, 8]"] ;
38 -> 42 ;
43 [label="entropy = 0.811\nsamples = 12\nvalue = [3, 9]"] ;
37 -> 43 ;
44 [label="yvpjung6y #globalwarming <= 0.5\nentropy = 0.684\nsamples = 55\nvalue = [10, 45]"] ;
36 -> 44 ;
45 [label="https sah9coi05 <= 0.5\nentropy = 0.511\nsamples = 44\nvalue = [5, 39]"] ;
44 -> 45 ;
46 [label="uxsj1nrzcv #globalwarming <= 0.5\nentropy = 0.381\nsamples = 27\nvalue = [2, 25]"] ;
45 -> 46 ;
47 [label="entropy = 0.0\nsamples = 13\nvalue = [0, 13]"] ;
46 -> 47 ;
48 [label="entropy = 0.592\nsamples = 14\nvalue = [2, 12]"] ;
46 -> 48 ;
49 [label="entropy = 0.672\nsamples = 17\nvalue = [3, 14]"] ;
45 -> 49 ;
50 [label="entropy = 0.994\nsamples = 11\nvalue = [5, 6]"] ;
44 -> 50 ;
}
