digraph Tree {
node [shape=box] ;
0 [label="climate <= 0.5\nentropy = 0.998\nsamples = 2226\nvalue = [1056, 1170]"] ;
1 [label="#climatechange <= 0.5\nentropy = 0.986\nsamples = 1126\nvalue = [641, 485]"] ;
0 -> 1 [labeldistance=2.5, labelangle=45, headlabel="True"] ;
2 [label="companies <= 0.5\nentropy = 0.934\nsamples = 871\nvalue = [566, 305]"] ;
1 -> 2 ;
3 [label="levels <= 0.5\nentropy = 0.924\nsamples = 848\nvalue = [560, 288]"] ;
2 -> 3 ;
4 [label="coal plants <= 0.5\nentropy = 0.919\nsamples = 841\nvalue = [560, 281]"] ;
3 -> 4 ;
5 [label="#climatechangeisreal <= 0.5\nentropy = 0.911\nsamples = 827\nvalue = [557, 270]"] ;
4 -> 5 ;
6 [label="@ipcc_ch <= 0.5\nentropy = 0.904\nsamples = 816\nvalue = [555, 261]"] ;
5 -> 6 ;
7 [label="fossil <= 0.5\nentropy = 0.896\nsamples = 803\nvalue = [552, 251]"] ;
6 -> 7 ;
8 [label="change <= 0.5\nentropy = 0.888\nsamples = 791\nvalue = [549, 242]"] ;
7 -> 8 ;
9 [label="greenhouse <= 0.5\nentropy = 0.876\nsamples = 764\nvalue = [538, 226]"] ;
8 -> 9 ;
10 [label="entropy = 0.871\nsamples = 760\nvalue = [538, 222]"] ;
9 -> 10 ;
11 [label="entropy = 0.0\nsamples = 4\nvalue = [0, 4]"] ;
9 -> 11 ;
12 [label="makes <= 0.5\nentropy = 0.975\nsamples = 27\nvalue = [11, 16]"] ;
8 -> 12 ;
13 [label="entropy = 0.943\nsamples = 25\nvalue = [9, 16]"] ;
12 -> 13 ;
14 [label="entropy = 0.0\nsamples = 2\nvalue = [2, 0]"] ;
12 -> 14 ;
15 [label="says <= 0.5\nentropy = 0.811\nsamples = 12\nvalue = [3, 9]"] ;
7 -> 15 ;
16 [label="now <= 0.5\nentropy = 0.469\nsamples = 10\nvalue = [1, 9]"] ;
15 -> 16 ;
17 [label="entropy = 0.0\nsamples = 8\nvalue = [0, 8]"] ;
16 -> 17 ;
18 [label="entropy = 1.0\nsamples = 2\nvalue = [1, 1]"] ;
16 -> 18 ;
19 [label="entropy = 0.0\nsamples = 2\nvalue = [2, 0]"] ;
15 -> 19 ;
20 [label="an <= 0.5\nentropy = 0.779\nsamples = 13\nvalue = [3, 10]"] ;
6 -> 20 ;
21 [label="new <= 0.5\nentropy = 0.918\nsamples = 9\nvalue = [3, 6]"] ;
20 -> 21 ;
22 [label="if <= 0.5\nentropy = 0.863\nsamples = 7\nvalue = [2, 5]"] ;
21 -> 22 ;
23 [label="entropy = 0.722\nsamples = 5\nvalue = [1, 4]"] ;
22 -> 23 ;
24 [label="entropy = 1.0\nsamples = 2\nvalue = [1, 1]"] ;
22 -> 24 ;
25 [label="entropy = 1.0\nsamples = 2\nvalue = [1, 1]"] ;
21 -> 25 ;
26 [label="entropy = 0.0\nsamples = 4\nvalue = [0, 4]"] ;
20 -> 26 ;
27 [label="https <= 0.5\nentropy = 0.684\nsamples = 11\nvalue = [2, 9]"] ;
5 -> 27 ;
28 [label="entropy = 0.0\nsamples = 6\nvalue = [0, 6]"] ;
27 -> 28 ;
29 [label="entropy = 0.971\nsamples = 5\nvalue = [2, 3]"] ;
27 -> 29 ;
30 [label="proposal <= 0.5\nentropy = 0.75\nsamples = 14\nvalue = [3, 11]"] ;
4 -> 30 ;
31 [label="entropy = 0.0\nsamples = 2\nvalue = [0, 2]"] ;
30 -> 31 ;
32 [label="entropy = 0.811\nsamples = 12\nvalue = [3, 9]"] ;
30 -> 32 ;
33 [label="entropy = 0.0\nsamples = 7\nvalue = [0, 7]"] ;
3 -> 33 ;
34 [label="do <= 0.5\nentropy = 0.828\nsamples = 23\nvalue = [6, 17]"] ;
2 -> 34 ;
35 [label="https <= 0.5\nentropy = 0.722\nsamples = 20\nvalue = [4, 16]"] ;
34 -> 35 ;
36 [label="coal <= 0.5\nentropy = 0.918\nsamples = 9\nvalue = [3, 6]"] ;
35 -> 36 ;
37 [label="every <= 0.5\nentropy = 0.985\nsamples = 7\nvalue = [3, 4]"] ;
36 -> 37 ;
38 [label="carbon <= 0.5\nentropy = 0.971\nsamples = 5\nvalue = [3, 2]"] ;
37 -> 38 ;
39 [label="entropy = 0.918\nsamples = 3\nvalue = [2, 1]"] ;
38 -> 39 ;
40 [label="entropy = 1.0\nsamples = 2\nvalue = [1, 1]"] ;
38 -> 40 ;
41 [label="entropy = 0.0\nsamples = 2\nvalue = [0, 2]"] ;
37 -> 41 ;
42 [label="entropy = 0.0\nsamples = 2\nvalue = [0, 2]"] ;
36 -> 42 ;
43 [label="study <= 0.5\nentropy = 0.439\nsamples = 11\nvalue = [1, 10]"] ;
35 -> 43 ;
44 [label="entropy = 0.0\nsamples = 6\nvalue = [0, 6]"] ;
43 -> 44 ;
45 [label="entropy = 0.722\nsamples = 5\nvalue = [1, 4]"] ;
43 -> 45 ;
46 [label="entropy = 0.918\nsamples = 3\nvalue = [2, 1]"] ;
34 -> 46 ;
47 [label="economic <= 0.5\nentropy = 0.874\nsamples = 255\nvalue = [75, 180]"] ;
1 -> 47 ;
48 [label="an <= 0.5\nentropy = 0.867\nsamples = 253\nvalue = [73, 180]"] ;
47 -> 48 ;
49 [label="taking <= 0.5\nentropy = 0.88\nsamples = 244\nvalue = [73, 171]"] ;
48 -> 49 ;
50 [label="call <= 0.5\nentropy = 0.873\nsamples = 242\nvalue = [71, 171]"] ;
49 -> 50 ;
51 [label="species <= 0.5\nentropy = 0.865\nsamples = 240\nvalue = [69, 171]"] ;
50 -> 51 ;
52 [label="now <= 0.5\nentropy = 0.858\nsamples = 238\nvalue = [67, 171]"] ;
51 -> 52 ;
53 [label="take <= 0.5\nentropy = 0.879\nsamples = 225\nvalue = [67, 158]"] ;
52 -> 53 ;
54 [label="little <= 0.5\nentropy = 0.864\nsamples = 220\nvalue = [63, 157]"] ;
53 -> 54 ;
55 [label="entropy = 0.855\nsamples = 218\nvalue = [61, 157]"] ;
54 -> 55 ;
56 [label="entropy = 0.0\nsamples = 2\nvalue = [2, 0]"] ;
54 -> 56 ;
57 [label="report <= 0.5\nentropy = 0.722\nsamples = 5\nvalue = [4, 1]"] ;
53 -> 57 ;
58 [label="entropy = 0.918\nsamples = 3\nvalue = [2, 1]"] ;
57 -> 58 ;
59 [label="entropy = 0.0\nsamples = 2\nvalue = [2, 0]"] ;
57 -> 59 ;
60 [label="entropy = 0.0\nsamples = 13\nvalue = [0, 13]"] ;
52 -> 60 ;
61 [label="entropy = 0.0\nsamples = 2\nvalue = [2, 0]"] ;
51 -> 61 ;
62 [label="entropy = 0.0\nsamples = 2\nvalue = [2, 0]"] ;
50 -> 62 ;
63 [label="entropy = 0.0\nsamples = 2\nvalue = [2, 0]"] ;
49 -> 63 ;
64 [label="entropy = 0.0\nsamples = 9\nvalue = [0, 9]"] ;
48 -> 64 ;
65 [label="entropy = 0.0\nsamples = 2\nvalue = [2, 0]"] ;
47 -> 65 ;
66 [label="change only <= 0.5\nentropy = 0.956\nsamples = 1100\nvalue = [415, 685]"] ;
0 -> 66 [labeldistance=2.5, labelangle=-45, headlabel="False"] ;
67 [label="global <= 1.5\nentropy = 0.959\nsamples = 1089\nvalue = [415, 674]"] ;
66 -> 67 ;
68 [label="via <= 0.5\nentropy = 0.956\nsamples = 1080\nvalue = [407, 673]"] ;
67 -> 68 ;
69 [label="if don <= 0.5\nentropy = 0.961\nsamples = 1053\nvalue = [404, 649]"] ;
68 -> 69 ;
70 [label="years <= 0.5\nentropy = 0.963\nsamples = 1043\nvalue = [404, 639]"] ;
69 -> 70 ;
71 [label="could <= 0.5\nentropy = 0.97\nsamples = 978\nvalue = [390, 588]"] ;
70 -> 71 ;
72 [label="or <= 0.5\nentropy = 0.975\nsamples = 954\nvalue = [388, 566]"] ;
71 -> 72 ;
73 [label="year <= 0.5\nentropy = 0.968\nsamples = 905\nvalue = [357, 548]"] ;
72 -> 73 ;
74 [label="children <= 0.5\nentropy = 0.971\nsamples = 890\nvalue = [356, 534]"] ;
73 -> 74 ;
75 [label="entropy = 0.973\nsamples = 883\nvalue = [356, 527]"] ;
74 -> 75 ;
76 [label="entropy = 0.0\nsamples = 7\nvalue = [0, 7]"] ;
74 -> 76 ;
77 [label="what <= 0.5\nentropy = 0.353\nsamples = 15\nvalue = [1, 14]"] ;
73 -> 77 ;
78 [label="entropy = 0.0\nsamples = 13\nvalue = [0, 13]"] ;
77 -> 78 ;
79 [label="entropy = 1.0\nsamples = 2\nvalue = [1, 1]"] ;
77 -> 79 ;
80 [label="next <= 0.5\nentropy = 0.949\nsamples = 49\nvalue = [31, 18]"] ;
72 -> 80 ;
81 [label="less <= 0.5\nentropy = 0.911\nsamples = 46\nvalue = [31, 15]"] ;
80 -> 81 ;
82 [label="entropy = 0.854\nsamples = 43\nvalue = [31, 12]"] ;
81 -> 82 ;
83 [label="entropy = 0.0\nsamples = 3\nvalue = [0, 3]"] ;
81 -> 83 ;
84 [label="entropy = 0.0\nsamples = 3\nvalue = [0, 3]"] ;
80 -> 84 ;
85 [label="good <= 0.5\nentropy = 0.414\nsamples = 24\nvalue = [2, 22]"] ;
71 -> 85 ;
86 [label="because <= 0.5\nentropy = 0.267\nsamples = 22\nvalue = [1, 21]"] ;
85 -> 86 ;
87 [label="entropy = 0.0\nsamples = 20\nvalue = [0, 20]"] ;
86 -> 87 ;
88 [label="entropy = 1.0\nsamples = 2\nvalue = [1, 1]"] ;
86 -> 88 ;
89 [label="entropy = 1.0\nsamples = 2\nvalue = [1, 1]"] ;
85 -> 89 ;
90 [label="it's <= 0.5\nentropy = 0.752\nsamples = 65\nvalue = [14, 51]"] ;
70 -> 90 ;
91 [label="https <= 0.5\nentropy = 0.674\nsamples = 62\nvalue = [11, 51]"] ;
90 -> 91 ;
92 [label="could <= 0.5\nentropy = 0.794\nsamples = 46\nvalue = [11, 35]"] ;
91 -> 92 ;
93 [label="hurricanes <= 0.5\nentropy = 0.731\nsamples = 44\nvalue = [9, 35]"] ;
92 -> 93 ;
94 [label="entropy = 0.65\nsamples = 42\nvalue = [7, 35]"] ;
93 -> 94 ;
95 [label="entropy = 0.0\nsamples = 2\nvalue = [2, 0]"] ;
93 -> 95 ;
96 [label="entropy = 0.0\nsamples = 2\nvalue = [2, 0]"] ;
92 -> 96 ;
97 [label="entropy = 0.0\nsamples = 16\nvalue = [0, 16]"] ;
91 -> 97 ;
98 [label="entropy = 0.0\nsamples = 3\nvalue = [3, 0]"] ;
90 -> 98 ;
99 [label="entropy = 0.0\nsamples = 10\nvalue = [0, 10]"] ;
69 -> 99 ;
100 [label="make <= 0.5\nentropy = 0.503\nsamples = 27\nvalue = [3, 24]"] ;
68 -> 100 ;
101 [label="hurricanes <= 0.5\nentropy = 0.402\nsamples = 25\nvalue = [2, 23]"] ;
100 -> 101 ;
102 [label="change <= 0.5\nentropy = 0.276\nsamples = 21\nvalue = [1, 20]"] ;
101 -> 102 ;
103 [label="entropy = 0.0\nsamples = 5\nvalue = [0, 5]"] ;
102 -> 103 ;
104 [label="change https <= 0.5\nentropy = 0.337\nsamples = 16\nvalue = [1, 15]"] ;
102 -> 104 ;
105 [label="fight climate <= 0.5\nentropy = 0.391\nsamples = 13\nvalue = [1, 12]"] ;
104 -> 105 ;
106 [label="corporations <= 0.5\nentropy = 0.469\nsamples = 10\nvalue = [1, 9]"] ;
105 -> 106 ;
107 [label="entropy = 0.544\nsamples = 8\nvalue = [1, 7]"] ;
106 -> 107 ;
108 [label="entropy = 0.0\nsamples = 2\nvalue = [0, 2]"] ;
106 -> 108 ;
109 [label="entropy = 0.0\nsamples = 3\nvalue = [0, 3]"] ;
105 -> 109 ;
110 [label="entropy = 0.0\nsamples = 3\nvalue = [0, 3]"] ;
104 -> 110 ;
111 [label="entropy = 0.811\nsamples = 4\nvalue = [1, 3]"] ;
101 -> 111 ;
112 [label="entropy = 1.0\nsamples = 2\nvalue = [1, 1]"] ;
100 -> 112 ;
113 [label="https <= 0.5\nentropy = 0.503\nsamples = 9\nvalue = [8, 1]"] ;
67 -> 113 ;
114 [label="entropy = 0.0\nsamples = 7\nvalue = [7, 0]"] ;
113 -> 114 ;
115 [label="entropy = 1.0\nsamples = 2\nvalue = [1, 1]"] ;
113 -> 115 ;
116 [label="entropy = 0.0\nsamples = 11\nvalue = [0, 11]"] ;
66 -> 116 ;
}
