digraph Tree {
node [shape=box] ;
0 [label="climate <= 0.5\nentropy = 0.998\nsamples = 2227\nvalue = [1056, 1171]"] ;
1 [label="#climatechange <= 0.5\nentropy = 0.989\nsamples = 1144\nvalue = [641, 503]"] ;
0 -> 1 [labeldistance=2.5, labelangle=45, headlabel="True"] ;
2 [label="emissions <= 0.5\nentropy = 0.945\nsamples = 884\nvalue = [563, 321]"] ;
1 -> 2 ;
3 [label="administration <= 0.5\nentropy = 0.935\nsamples = 860\nvalue = [558, 302]"] ;
2 -> 3 ;
4 [label="states <= 0.5\nentropy = 0.926\nsamples = 844\nvalue = [556, 288]"] ;
3 -> 4 ;
5 [label="threat <= 0.5\nentropy = 0.921\nsamples = 838\nvalue = [556, 282]"] ;
4 -> 5 ;
6 [label="report <= 0.5\nentropy = 0.917\nsamples = 832\nvalue = [556, 276]"] ;
5 -> 6 ;
7 [label="#climatechangeisreal <= 0.5\nentropy = 0.903\nsamples = 793\nvalue = [540, 253]"] ;
6 -> 7 ;
8 [label="carbon <= 0.5\nentropy = 0.895\nsamples = 782\nvalue = [538, 244]"] ;
7 -> 8 ;
9 [label="we're <= 0.5\nentropy = 0.884\nsamples = 761\nvalue = [531, 230]"] ;
8 -> 9 ;
10 [label="humanity <= 0.5\nentropy = 0.877\nsamples = 753\nvalue = [530, 223]"] ;
9 -> 10 ;
11 [label="shit <= 0.5\nentropy = 0.872\nsamples = 749\nvalue = [530, 219]"] ;
10 -> 11 ;
12 [label="issues <= 0.5\nentropy = 0.879\nsamples = 734\nvalue = [515, 219]"] ;
11 -> 12 ;
13 [label="#globalwarming <= 0.5\nentropy = 0.874\nsamples = 730\nvalue = [515, 215]"] ;
12 -> 13 ;
14 [label="#climate <= 0.5\nentropy = 0.864\nsamples = 713\nvalue = [509, 204]"] ;
13 -> 14 ;
15 [label="entropy = 0.856\nsamples = 706\nvalue = [508, 198]"] ;
14 -> 15 ;
16 [label="entropy = 0.592\nsamples = 7\nvalue = [1, 6]"] ;
14 -> 16 ;
17 [label="global warming <= 0.5\nentropy = 0.937\nsamples = 17\nvalue = [6, 11]"] ;
13 -> 17 ;
18 [label="entropy = 0.75\nsamples = 14\nvalue = [3, 11]"] ;
17 -> 18 ;
19 [label="entropy = 0.0\nsamples = 3\nvalue = [3, 0]"] ;
17 -> 19 ;
20 [label="entropy = 0.0\nsamples = 4\nvalue = [0, 4]"] ;
12 -> 20 ;
21 [label="entropy = 0.0\nsamples = 15\nvalue = [15, 0]"] ;
11 -> 21 ;
22 [label="entropy = 0.0\nsamples = 4\nvalue = [0, 4]"] ;
10 -> 22 ;
23 [label="warming <= 0.5\nentropy = 0.544\nsamples = 8\nvalue = [1, 7]"] ;
9 -> 23 ;
24 [label="entropy = 0.811\nsamples = 4\nvalue = [1, 3]"] ;
23 -> 24 ;
25 [label="entropy = 0.0\nsamples = 4\nvalue = [0, 4]"] ;
23 -> 25 ;
26 [label="pollution <= 0.5\nentropy = 0.918\nsamples = 21\nvalue = [7, 14]"] ;
8 -> 26 ;
27 [label="canada <= 0.5\nentropy = 0.764\nsamples = 18\nvalue = [4, 14]"] ;
26 -> 27 ;
28 [label="was <= 0.5\nentropy = 0.567\nsamples = 15\nvalue = [2, 13]"] ;
27 -> 28 ;
29 [label="know <= 0.5\nentropy = 0.391\nsamples = 13\nvalue = [1, 12]"] ;
28 -> 29 ;
30 [label="entropy = 0.0\nsamples = 11\nvalue = [0, 11]"] ;
29 -> 30 ;
31 [label="entropy = 1.0\nsamples = 2\nvalue = [1, 1]"] ;
29 -> 31 ;
32 [label="entropy = 1.0\nsamples = 2\nvalue = [1, 1]"] ;
28 -> 32 ;
33 [label="entropy = 0.918\nsamples = 3\nvalue = [2, 1]"] ;
27 -> 33 ;
34 [label="entropy = 0.0\nsamples = 3\nvalue = [3, 0]"] ;
26 -> 34 ;
35 [label="https co <= 0.5\nentropy = 0.684\nsamples = 11\nvalue = [2, 9]"] ;
7 -> 35 ;
36 [label="entropy = 0.0\nsamples = 5\nvalue = [0, 5]"] ;
35 -> 36 ;
37 [label="at <= 0.5\nentropy = 0.918\nsamples = 6\nvalue = [2, 4]"] ;
35 -> 37 ;
38 [label="entropy = 0.811\nsamples = 4\nvalue = [1, 3]"] ;
37 -> 38 ;
39 [label="entropy = 1.0\nsamples = 2\nvalue = [1, 1]"] ;
37 -> 39 ;
40 [label="getting <= 0.5\nentropy = 0.977\nsamples = 39\nvalue = [16, 23]"] ;
6 -> 40 ;
41 [label="effects <= 0.5\nentropy = 0.944\nsamples = 36\nvalue = [13, 23]"] ;
40 -> 41 ;
42 [label="been <= 0.5\nentropy = 0.908\nsamples = 34\nvalue = [11, 23]"] ;
41 -> 42 ;
43 [label="one <= 0.5\nentropy = 0.857\nsamples = 32\nvalue = [9, 23]"] ;
42 -> 43 ;
44 [label="global <= 0.5\nentropy = 0.784\nsamples = 30\nvalue = [7, 23]"] ;
43 -> 44 ;
45 [label="call <= 0.5\nentropy = 0.902\nsamples = 22\nvalue = [7, 15]"] ;
44 -> 45 ;
46 [label="new <= 0.5\nentropy = 0.831\nsamples = 19\nvalue = [5, 14]"] ;
45 -> 46 ;
47 [label="trump <= 0.5\nentropy = 0.94\nsamples = 14\nvalue = [5, 9]"] ;
46 -> 47 ;
48 [label="entropy = 0.98\nsamples = 12\nvalue = [5, 7]"] ;
47 -> 48 ;
49 [label="entropy = 0.0\nsamples = 2\nvalue = [0, 2]"] ;
47 -> 49 ;
50 [label="entropy = 0.0\nsamples = 5\nvalue = [0, 5]"] ;
46 -> 50 ;
51 [label="entropy = 0.918\nsamples = 3\nvalue = [2, 1]"] ;
45 -> 51 ;
52 [label="entropy = 0.0\nsamples = 8\nvalue = [0, 8]"] ;
44 -> 52 ;
53 [label="entropy = 0.0\nsamples = 2\nvalue = [2, 0]"] ;
43 -> 53 ;
54 [label="entropy = 0.0\nsamples = 2\nvalue = [2, 0]"] ;
42 -> 54 ;
55 [label="entropy = 0.0\nsamples = 2\nvalue = [2, 0]"] ;
41 -> 55 ;
56 [label="entropy = 0.0\nsamples = 3\nvalue = [3, 0]"] ;
40 -> 56 ;
57 [label="entropy = 0.0\nsamples = 6\nvalue = [0, 6]"] ;
5 -> 57 ;
58 [label="entropy = 0.0\nsamples = 6\nvalue = [0, 6]"] ;
4 -> 58 ;
59 [label="https <= 0.5\nentropy = 0.544\nsamples = 16\nvalue = [2, 14]"] ;
3 -> 59 ;
60 [label="#standupforscience #actonclimate <= 0.5\nentropy = 0.371\nsamples = 14\nvalue = [1, 13]"] ;
59 -> 60 ;
61 [label="entropy = 0.0\nsamples = 2\nvalue = [0, 2]"] ;
60 -> 61 ;
62 [label="entropy = 0.414\nsamples = 12\nvalue = [1, 11]"] ;
60 -> 62 ;
63 [label="entropy = 1.0\nsamples = 2\nvalue = [1, 1]"] ;
59 -> 63 ;
64 [label="us <= 0.5\nentropy = 0.738\nsamples = 24\nvalue = [5, 19]"] ;
2 -> 64 ;
65 [label="has <= 0.5\nentropy = 0.575\nsamples = 22\nvalue = [3, 19]"] ;
64 -> 65 ;
66 [label="companies responsible <= 0.5\nentropy = 0.469\nsamples = 20\nvalue = [2, 18]"] ;
65 -> 66 ;
67 [label="entropy = 0.0\nsamples = 11\nvalue = [0, 11]"] ;
66 -> 67 ;
68 [label="when <= 0.5\nentropy = 0.764\nsamples = 9\nvalue = [2, 7]"] ;
66 -> 68 ;
69 [label="study <= 0.5\nentropy = 0.592\nsamples = 7\nvalue = [1, 6]"] ;
68 -> 69 ;
70 [label="entropy = 0.0\nsamples = 3\nvalue = [0, 3]"] ;
69 -> 70 ;
71 [label="entropy = 0.811\nsamples = 4\nvalue = [1, 3]"] ;
69 -> 71 ;
72 [label="entropy = 1.0\nsamples = 2\nvalue = [1, 1]"] ;
68 -> 72 ;
73 [label="entropy = 1.0\nsamples = 2\nvalue = [1, 1]"] ;
65 -> 73 ;
74 [label="entropy = 0.0\nsamples = 2\nvalue = [2, 0]"] ;
64 -> 74 ;
75 [label="taking <= 0.5\nentropy = 0.881\nsamples = 260\nvalue = [78, 182]"] ;
1 -> 75 ;
76 [label="when <= 0.5\nentropy = 0.871\nsamples = 257\nvalue = [75, 182]"] ;
75 -> 76 ;
77 [label="catastrophic <= 0.5\nentropy = 0.884\nsamples = 248\nvalue = [75, 173]"] ;
76 -> 77 ;
78 [label="why <= 0.5\nentropy = 0.922\nsamples = 196\nvalue = [66, 130]"] ;
77 -> 78 ;
79 [label="storms <= 0.5\nentropy = 0.933\nsamples = 189\nvalue = [66, 123]"] ;
78 -> 79 ;
80 [label="an <= 0.5\nentropy = 0.942\nsamples = 184\nvalue = [66, 118]"] ;
79 -> 80 ;
81 [label="need <= 0.5\nentropy = 0.955\nsamples = 173\nvalue = [65, 108]"] ;
80 -> 81 ;
82 [label="just <= 0.5\nentropy = 0.942\nsamples = 167\nvalue = [60, 107]"] ;
81 -> 82 ;
83 [label="him <= 0.5\nentropy = 0.956\nsamples = 159\nvalue = [60, 99]"] ;
82 -> 83 ;
84 [label="powerful <= 0.5\nentropy = 0.95\nsamples = 157\nvalue = [58, 99]"] ;
83 -> 84 ;
85 [label="talk <= 0.5\nentropy = 0.944\nsamples = 155\nvalue = [56, 99]"] ;
84 -> 85 ;
86 [label="country <= 0.5\nentropy = 0.937\nsamples = 153\nvalue = [54, 99]"] ;
85 -> 86 ;
87 [label="but <= 0.5\nentropy = 0.929\nsamples = 151\nvalue = [52, 99]"] ;
86 -> 87 ;
88 [label="entropy = 0.946\nsamples = 143\nvalue = [52, 91]"] ;
87 -> 88 ;
89 [label="entropy = 0.0\nsamples = 8\nvalue = [0, 8]"] ;
87 -> 89 ;
90 [label="entropy = 0.0\nsamples = 2\nvalue = [2, 0]"] ;
86 -> 90 ;
91 [label="entropy = 0.0\nsamples = 2\nvalue = [2, 0]"] ;
85 -> 91 ;
92 [label="entropy = 0.0\nsamples = 2\nvalue = [2, 0]"] ;
84 -> 92 ;
93 [label="entropy = 0.0\nsamples = 2\nvalue = [2, 0]"] ;
83 -> 93 ;
94 [label="entropy = 0.0\nsamples = 8\nvalue = [0, 8]"] ;
82 -> 94 ;
95 [label="https <= 0.5\nentropy = 0.65\nsamples = 6\nvalue = [5, 1]"] ;
81 -> 95 ;
96 [label="so <= 0.5\nentropy = 0.811\nsamples = 4\nvalue = [3, 1]"] ;
95 -> 96 ;
97 [label="entropy = 1.0\nsamples = 2\nvalue = [1, 1]"] ;
96 -> 97 ;
98 [label="entropy = 0.0\nsamples = 2\nvalue = [2, 0]"] ;
96 -> 98 ;
99 [label="entropy = 0.0\nsamples = 2\nvalue = [2, 0]"] ;
95 -> 99 ;
100 [label="her <= 0.5\nentropy = 0.439\nsamples = 11\nvalue = [1, 10]"] ;
80 -> 100 ;
101 [label="entropy = 0.0\nsamples = 9\nvalue = [0, 9]"] ;
100 -> 101 ;
102 [label="entropy = 1.0\nsamples = 2\nvalue = [1, 1]"] ;
100 -> 102 ;
103 [label="entropy = 0.0\nsamples = 5\nvalue = [0, 5]"] ;
79 -> 103 ;
104 [label="entropy = 0.0\nsamples = 7\nvalue = [0, 7]"] ;
78 -> 104 ;
105 [label="#globalwarming <= 0.5\nentropy = 0.665\nsamples = 52\nvalue = [9, 43]"] ;
77 -> 105 ;
106 [label="entropy = 0.0\nsamples = 4\nvalue = [0, 4]"] ;
105 -> 106 ;
107 [label="dangerous <= 0.5\nentropy = 0.696\nsamples = 48\nvalue = [9, 39]"] ;
105 -> 107 ;
108 [label="real <= 0.5\nentropy = 0.722\nsamples = 45\nvalue = [9, 36]"] ;
107 -> 108 ;
109 [label="co fymm0h4ojn <= 0.5\nentropy = 0.693\nsamples = 43\nvalue = [8, 35]"] ;
108 -> 109 ;
110 [label="#actonclimate <= 0.5\nentropy = 0.742\nsamples = 38\nvalue = [8, 30]"] ;
109 -> 110 ;
111 [label="uxsj1nrzcv <= 0.5\nentropy = 0.764\nsamples = 36\nvalue = [8, 28]"] ;
110 -> 111 ;
112 [label="sah9coi05 <= 0.5\nentropy = 0.845\nsamples = 22\nvalue = [6, 16]"] ;
111 -> 112 ;
113 [label="entropy = 0.881\nsamples = 10\nvalue = [3, 7]"] ;
112 -> 113 ;
114 [label="entropy = 0.811\nsamples = 12\nvalue = [3, 9]"] ;
112 -> 114 ;
115 [label="entropy = 0.592\nsamples = 14\nvalue = [2, 12]"] ;
111 -> 115 ;
116 [label="entropy = 0.0\nsamples = 2\nvalue = [0, 2]"] ;
110 -> 116 ;
117 [label="entropy = 0.0\nsamples = 5\nvalue = [0, 5]"] ;
109 -> 117 ;
118 [label="entropy = 1.0\nsamples = 2\nvalue = [1, 1]"] ;
108 -> 118 ;
119 [label="entropy = 0.0\nsamples = 3\nvalue = [0, 3]"] ;
107 -> 119 ;
120 [label="entropy = 0.0\nsamples = 9\nvalue = [0, 9]"] ;
76 -> 120 ;
121 [label="entropy = 0.0\nsamples = 3\nvalue = [3, 0]"] ;
75 -> 121 ;
122 [label="years <= 0.5\nentropy = 0.96\nsamples = 1083\nvalue = [415, 668]"] ;
0 -> 122 [labeldistance=2.5, labelangle=-45, headlabel="False"] ;
123 [label="everything <= 0.5\nentropy = 0.968\nsamples = 1025\nvalue = [405, 620]"] ;
122 -> 123 ;
124 [label="don <= 0.5\nentropy = 0.966\nsamples = 1019\nvalue = [399, 620]"] ;
123 -> 124 ;
125 [label="could <= 0.5\nentropy = 0.97\nsamples = 993\nvalue = [396, 597]"] ;
124 -> 125 ;
126 [label="change only <= 0.5\nentropy = 0.974\nsamples = 972\nvalue = [394, 578]"] ;
125 -> 126 ;
127 [label="didn't <= 0.5\nentropy = 0.976\nsamples = 963\nvalue = [394, 569]"] ;
126 -> 127 ;
128 [label="impact <= 0.5\nentropy = 0.974\nsamples = 958\nvalue = [389, 569]"] ;
127 -> 128 ;
129 [label="via <= 0.5\nentropy = 0.976\nsamples = 950\nvalue = [389, 561]"] ;
128 -> 129 ;
130 [label="house <= 0.5\nentropy = 0.98\nsamples = 921\nvalue = [384, 537]"] ;
129 -> 130 ;
131 [label="fake <= 0.5\nentropy = 0.982\nsamples = 914\nvalue = [384, 530]"] ;
130 -> 131 ;
132 [label="nice <= 0.5\nentropy = 0.98\nsamples = 906\nvalue = [377, 529]"] ;
131 -> 132 ;
133 [label="give <= 0.5\nentropy = 0.978\nsamples = 902\nvalue = [373, 529]"] ;
132 -> 133 ;
134 [label="weather <= 0.5\nentropy = 0.976\nsamples = 889\nvalue = [363, 526]"] ;
133 -> 134 ;
135 [label="anything <= 0.5\nentropy = 0.971\nsamples = 861\nvalue = [345, 516]"] ;
134 -> 135 ;
136 [label="entropy = 0.973\nsamples = 853\nvalue = [345, 508]"] ;
135 -> 136 ;
137 [label="entropy = 0.0\nsamples = 8\nvalue = [0, 8]"] ;
135 -> 137 ;
138 [label="how <= 0.5\nentropy = 0.94\nsamples = 28\nvalue = [18, 10]"] ;
134 -> 138 ;
139 [label="entropy = 0.855\nsamples = 25\nvalue = [18, 7]"] ;
138 -> 139 ;
140 [label="entropy = 0.0\nsamples = 3\nvalue = [0, 3]"] ;
138 -> 140 ;
141 [label="better <= 0.5\nentropy = 0.779\nsamples = 13\nvalue = [10, 3]"] ;
133 -> 141 ;
142 [label="people <= 0.5\nentropy = 0.439\nsamples = 11\nvalue = [10, 1]"] ;
141 -> 142 ;
143 [label="entropy = 0.0\nsamples = 6\nvalue = [6, 0]"] ;
142 -> 143 ;
144 [label="entropy = 0.722\nsamples = 5\nvalue = [4, 1]"] ;
142 -> 144 ;
145 [label="entropy = 0.0\nsamples = 2\nvalue = [0, 2]"] ;
141 -> 145 ;
146 [label="entropy = 0.0\nsamples = 4\nvalue = [4, 0]"] ;
132 -> 146 ;
147 [label="just <= 0.5\nentropy = 0.544\nsamples = 8\nvalue = [7, 1]"] ;
131 -> 147 ;
148 [label="entropy = 0.0\nsamples = 6\nvalue = [6, 0]"] ;
147 -> 148 ;
149 [label="entropy = 1.0\nsamples = 2\nvalue = [1, 1]"] ;
147 -> 149 ;
150 [label="entropy = 0.0\nsamples = 7\nvalue = [0, 7]"] ;
130 -> 150 ;
151 [label="climate change <= 0.5\nentropy = 0.663\nsamples = 29\nvalue = [5, 24]"] ;
129 -> 151 ;
152 [label="entropy = 0.0\nsamples = 6\nvalue = [0, 6]"] ;
151 -> 152 ;
153 [label="change https <= 0.5\nentropy = 0.755\nsamples = 23\nvalue = [5, 18]"] ;
151 -> 153 ;
154 [label="like <= 0.5\nentropy = 0.831\nsamples = 19\nvalue = [5, 14]"] ;
153 -> 154 ;
155 [label="plan <= 0.5\nentropy = 0.896\nsamples = 16\nvalue = [5, 11]"] ;
154 -> 155 ;
156 [label="get <= 0.5\nentropy = 0.94\nsamples = 14\nvalue = [5, 9]"] ;
155 -> 156 ;
157 [label="make <= 0.5\nentropy = 0.918\nsamples = 12\nvalue = [4, 8]"] ;
156 -> 157 ;
158 [label="entropy = 0.881\nsamples = 10\nvalue = [3, 7]"] ;
157 -> 158 ;
159 [label="entropy = 1.0\nsamples = 2\nvalue = [1, 1]"] ;
157 -> 159 ;
160 [label="entropy = 1.0\nsamples = 2\nvalue = [1, 1]"] ;
156 -> 160 ;
161 [label="entropy = 0.0\nsamples = 2\nvalue = [0, 2]"] ;
155 -> 161 ;
162 [label="entropy = 0.0\nsamples = 3\nvalue = [0, 3]"] ;
154 -> 162 ;
163 [label="entropy = 0.0\nsamples = 4\nvalue = [0, 4]"] ;
153 -> 163 ;
164 [label="entropy = 0.0\nsamples = 8\nvalue = [0, 8]"] ;
128 -> 164 ;
165 [label="entropy = 0.0\nsamples = 5\nvalue = [5, 0]"] ;
127 -> 165 ;
166 [label="entropy = 0.0\nsamples = 9\nvalue = [0, 9]"] ;
126 -> 166 ;
167 [label="up <= 0.5\nentropy = 0.454\nsamples = 21\nvalue = [2, 19]"] ;
125 -> 167 ;
168 [label="because <= 0.5\nentropy = 0.297\nsamples = 19\nvalue = [1, 18]"] ;
167 -> 168 ;
169 [label="entropy = 0.0\nsamples = 17\nvalue = [0, 17]"] ;
168 -> 169 ;
170 [label="entropy = 1.0\nsamples = 2\nvalue = [1, 1]"] ;
168 -> 170 ;
171 [label="entropy = 1.0\nsamples = 2\nvalue = [1, 1]"] ;
167 -> 171 ;
172 [label="change <= 0.5\nentropy = 0.516\nsamples = 26\nvalue = [3, 23]"] ;
124 -> 172 ;
173 [label="entropy = 0.0\nsamples = 3\nvalue = [3, 0]"] ;
172 -> 173 ;
174 [label="entropy = 0.0\nsamples = 23\nvalue = [0, 23]"] ;
172 -> 174 ;
175 [label="entropy = 0.0\nsamples = 6\nvalue = [6, 0]"] ;
123 -> 175 ;
176 [label="said <= 0.5\nentropy = 0.663\nsamples = 58\nvalue = [10, 48]"] ;
122 -> 176 ;
177 [label="@realdonaldtrump <= 0.5\nentropy = 0.592\nsamples = 56\nvalue = [8, 48]"] ;
176 -> 177 ;
178 [label="could <= 0.5\nentropy = 0.503\nsamples = 54\nvalue = [6, 48]"] ;
177 -> 178 ;
179 [label="then <= 0.5\nentropy = 0.391\nsamples = 52\nvalue = [4, 48]"] ;
178 -> 179 ;
180 [label="address <= 0.5\nentropy = 0.327\nsamples = 50\nvalue = [3, 47]"] ;
179 -> 180 ;
181 [label="who <= 0.5\nentropy = 0.25\nsamples = 48\nvalue = [2, 46]"] ;
180 -> 181 ;
182 [label="but <= 0.5\nentropy = 0.151\nsamples = 46\nvalue = [1, 45]"] ;
181 -> 182 ;
183 [label="entropy = 0.0\nsamples = 41\nvalue = [0, 41]"] ;
182 -> 183 ;
184 [label="global <= 0.5\nentropy = 0.722\nsamples = 5\nvalue = [1, 4]"] ;
182 -> 184 ;
185 [label="entropy = 0.918\nsamples = 3\nvalue = [1, 2]"] ;
184 -> 185 ;
186 [label="entropy = 0.0\nsamples = 2\nvalue = [0, 2]"] ;
184 -> 186 ;
187 [label="entropy = 1.0\nsamples = 2\nvalue = [1, 1]"] ;
181 -> 187 ;
188 [label="entropy = 1.0\nsamples = 2\nvalue = [1, 1]"] ;
180 -> 188 ;
189 [label="entropy = 1.0\nsamples = 2\nvalue = [1, 1]"] ;
179 -> 189 ;
190 [label="entropy = 0.0\nsamples = 2\nvalue = [2, 0]"] ;
178 -> 190 ;
191 [label="entropy = 0.0\nsamples = 2\nvalue = [2, 0]"] ;
177 -> 191 ;
192 [label="entropy = 0.0\nsamples = 2\nvalue = [2, 0]"] ;
176 -> 192 ;
}
