digraph Tree {
node [shape=box] ;
0 [label="climate <= 0.5\nentropy = 0.998\nsamples = 2227\nvalue = [1056, 1171]"] ;
1 [label="#climatechange <= 0.5\nentropy = 0.99\nsamples = 1124\nvalue = [628, 496]"] ;
0 -> 1 [labeldistance=2.5, labelangle=45, headlabel="True"] ;
2 [label="communities <= 0.5\nentropy = 0.944\nsamples = 867\nvalue = [553, 314]"] ;
1 -> 2 ;
3 [label="global <= 0.5\nentropy = 0.938\nsamples = 853\nvalue = [551, 302]"] ;
2 -> 3 ;
4 [label="#climateaction <= 0.5\nentropy = 0.924\nsamples = 801\nvalue = [529, 272]"] ;
3 -> 4 ;
5 [label="wake up <= 0.5\nentropy = 0.918\nsamples = 792\nvalue = [528, 264]"] ;
4 -> 5 ;
6 [label="@pauledawson <= 0.5\nentropy = 0.914\nsamples = 787\nvalue = [528, 259]"] ;
5 -> 6 ;
7 [label="fossil <= 0.5\nentropy = 0.91\nsamples = 782\nvalue = [528, 254]"] ;
6 -> 7 ;
8 [label="these <= 0.5\nentropy = 0.901\nsamples = 767\nvalue = [524, 243]"] ;
7 -> 8 ;
9 [label="#globalwarming <= 0.5\nentropy = 0.891\nsamples = 750\nvalue = [519, 231]"] ;
8 -> 9 ;
10 [label="effects <= 0.5\nentropy = 0.882\nsamples = 738\nvalue = [516, 222]"] ;
9 -> 10 ;
11 [label="dying <= 0.5\nentropy = 0.878\nsamples = 734\nvalue = [516, 218]"] ;
10 -> 11 ;
12 [label="threat <= 0.5\nentropy = 0.873\nsamples = 730\nvalue = [516, 214]"] ;
11 -> 12 ;
13 [label="#climatecrisis <= 0.5\nentropy = 0.868\nsamples = 726\nvalue = [516, 210]"] ;
12 -> 13 ;
14 [label="carbon <= 0.5\nentropy = 0.863\nsamples = 722\nvalue = [516, 206]"] ;
13 -> 14 ;
15 [label="entropy = 0.85\nsamples = 700\nvalue = [507, 193]"] ;
14 -> 15 ;
16 [label="entropy = 0.976\nsamples = 22\nvalue = [9, 13]"] ;
14 -> 16 ;
17 [label="entropy = 0.0\nsamples = 4\nvalue = [0, 4]"] ;
13 -> 17 ;
18 [label="entropy = 0.0\nsamples = 4\nvalue = [0, 4]"] ;
12 -> 18 ;
19 [label="entropy = 0.0\nsamples = 4\nvalue = [0, 4]"] ;
11 -> 19 ;
20 [label="entropy = 0.0\nsamples = 4\nvalue = [0, 4]"] ;
10 -> 20 ;
21 [label="keep <= 0.5\nentropy = 0.811\nsamples = 12\nvalue = [3, 9]"] ;
9 -> 21 ;
22 [label="americans <= 0.5\nentropy = 0.881\nsamples = 10\nvalue = [3, 7]"] ;
21 -> 22 ;
23 [label="coral <= 0.5\nentropy = 0.811\nsamples = 8\nvalue = [2, 6]"] ;
22 -> 23 ;
24 [label="https co <= 0.5\nentropy = 0.65\nsamples = 6\nvalue = [1, 5]"] ;
23 -> 24 ;
25 [label="entropy = 0.918\nsamples = 3\nvalue = [1, 2]"] ;
24 -> 25 ;
26 [label="entropy = 0.0\nsamples = 3\nvalue = [0, 3]"] ;
24 -> 26 ;
27 [label="entropy = 1.0\nsamples = 2\nvalue = [1, 1]"] ;
23 -> 27 ;
28 [label="entropy = 1.0\nsamples = 2\nvalue = [1, 1]"] ;
22 -> 28 ;
29 [label="entropy = 0.0\nsamples = 2\nvalue = [0, 2]"] ;
21 -> 29 ;
30 [label="hurricanes <= 0.5\nentropy = 0.874\nsamples = 17\nvalue = [5, 12]"] ;
8 -> 30 ;
31 [label="just <= 0.5\nentropy = 0.961\nsamples = 13\nvalue = [5, 8]"] ;
30 -> 31 ;
32 [label="would <= 0.5\nentropy = 0.845\nsamples = 11\nvalue = [3, 8]"] ;
31 -> 32 ;
33 [label="they <= 0.5\nentropy = 0.918\nsamples = 9\nvalue = [3, 6]"] ;
32 -> 33 ;
34 [label="against <= 0.5\nentropy = 0.985\nsamples = 7\nvalue = [3, 4]"] ;
33 -> 34 ;
35 [label="entropy = 0.971\nsamples = 5\nvalue = [2, 3]"] ;
34 -> 35 ;
36 [label="entropy = 1.0\nsamples = 2\nvalue = [1, 1]"] ;
34 -> 36 ;
37 [label="entropy = 0.0\nsamples = 2\nvalue = [0, 2]"] ;
33 -> 37 ;
38 [label="entropy = 0.0\nsamples = 2\nvalue = [0, 2]"] ;
32 -> 38 ;
39 [label="entropy = 0.0\nsamples = 2\nvalue = [2, 0]"] ;
31 -> 39 ;
40 [label="entropy = 0.0\nsamples = 4\nvalue = [0, 4]"] ;
30 -> 40 ;
41 [label="says <= 0.5\nentropy = 0.837\nsamples = 15\nvalue = [4, 11]"] ;
7 -> 41 ;
42 [label="just <= 0.5\nentropy = 0.619\nsamples = 13\nvalue = [2, 11]"] ;
41 -> 42 ;
43 [label="entropy = 0.0\nsamples = 10\nvalue = [0, 10]"] ;
42 -> 43 ;
44 [label="entropy = 0.918\nsamples = 3\nvalue = [2, 1]"] ;
42 -> 44 ;
45 [label="entropy = 0.0\nsamples = 2\nvalue = [2, 0]"] ;
41 -> 45 ;
46 [label="entropy = 0.0\nsamples = 5\nvalue = [0, 5]"] ;
6 -> 46 ;
47 [label="entropy = 0.0\nsamples = 5\nvalue = [0, 5]"] ;
5 -> 47 ;
48 [label="wondering <= 0.5\nentropy = 0.503\nsamples = 9\nvalue = [1, 8]"] ;
4 -> 48 ;
49 [label="entropy = 0.0\nsamples = 7\nvalue = [0, 7]"] ;
48 -> 49 ;
50 [label="entropy = 1.0\nsamples = 2\nvalue = [1, 1]"] ;
48 -> 50 ;
51 [label="they <= 0.5\nentropy = 0.983\nsamples = 52\nvalue = [22, 30]"] ;
3 -> 51 ;
52 [label="require <= 0.5\nentropy = 0.963\nsamples = 49\nvalue = [19, 30]"] ;
51 -> 52 ;
53 [label="science <= 0.5\nentropy = 0.982\nsamples = 45\nvalue = [19, 26]"] ;
52 -> 53 ;
54 [label="could <= 0.5\nentropy = 0.947\nsamples = 41\nvalue = [15, 26]"] ;
53 -> 54 ;
55 [label="then <= 0.5\nentropy = 0.918\nsamples = 39\nvalue = [13, 26]"] ;
54 -> 55 ;
56 [label="only <= 0.5\nentropy = 0.878\nsamples = 37\nvalue = [11, 26]"] ;
55 -> 56 ;
57 [label="un <= 0.5\nentropy = 0.822\nsamples = 35\nvalue = [9, 26]"] ;
56 -> 57 ;
58 [label="emissions https <= 0.5\nentropy = 0.869\nsamples = 31\nvalue = [9, 22]"] ;
57 -> 58 ;
59 [label="temperature <= 0.5\nentropy = 0.906\nsamples = 28\nvalue = [9, 19]"] ;
58 -> 59 ;
60 [label="acting <= 0.5\nentropy = 0.943\nsamples = 25\nvalue = [9, 16]"] ;
59 -> 60 ;
61 [label="it's <= 0.5\nentropy = 0.966\nsamples = 23\nvalue = [9, 14]"] ;
60 -> 61 ;
62 [label="entropy = 0.985\nsamples = 21\nvalue = [9, 12]"] ;
61 -> 62 ;
63 [label="entropy = 0.0\nsamples = 2\nvalue = [0, 2]"] ;
61 -> 63 ;
64 [label="entropy = 0.0\nsamples = 2\nvalue = [0, 2]"] ;
60 -> 64 ;
65 [label="entropy = 0.0\nsamples = 3\nvalue = [0, 3]"] ;
59 -> 65 ;
66 [label="entropy = 0.0\nsamples = 3\nvalue = [0, 3]"] ;
58 -> 66 ;
67 [label="entropy = 0.0\nsamples = 4\nvalue = [0, 4]"] ;
57 -> 67 ;
68 [label="entropy = 0.0\nsamples = 2\nvalue = [2, 0]"] ;
56 -> 68 ;
69 [label="entropy = 0.0\nsamples = 2\nvalue = [2, 0]"] ;
55 -> 69 ;
70 [label="entropy = 0.0\nsamples = 2\nvalue = [2, 0]"] ;
54 -> 70 ;
71 [label="entropy = 0.0\nsamples = 4\nvalue = [4, 0]"] ;
53 -> 71 ;
72 [label="entropy = 0.0\nsamples = 4\nvalue = [0, 4]"] ;
52 -> 72 ;
73 [label="entropy = 0.0\nsamples = 3\nvalue = [3, 0]"] ;
51 -> 73 ;
74 [label="out <= 1.5\nentropy = 0.592\nsamples = 14\nvalue = [2, 12]"] ;
2 -> 74 ;
75 [label="entropy = 0.0\nsamples = 2\nvalue = [0, 2]"] ;
74 -> 75 ;
76 [label="entropy = 0.65\nsamples = 12\nvalue = [2, 10]"] ;
74 -> 76 ;
77 [label="catastrophic <= 0.5\nentropy = 0.871\nsamples = 257\nvalue = [75, 182]"] ;
1 -> 77 ;
78 [label="when <= 0.5\nentropy = 0.923\nsamples = 195\nvalue = [66, 129]"] ;
77 -> 78 ;
79 [label="taking <= 0.5\nentropy = 0.937\nsamples = 187\nvalue = [66, 121]"] ;
78 -> 79 ;
80 [label="#ipccreport <= 0.5\nentropy = 0.927\nsamples = 184\nvalue = [63, 121]"] ;
79 -> 80 ;
81 [label="limit <= 0.5\nentropy = 0.916\nsamples = 181\nvalue = [60, 121]"] ;
80 -> 81 ;
82 [label="series <= 0.5\nentropy = 0.928\nsamples = 175\nvalue = [60, 115]"] ;
81 -> 82 ;
83 [label="having <= 0.5\nentropy = 0.92\nsamples = 173\nvalue = [58, 115]"] ;
82 -> 83 ;
84 [label="history https <= 0.5\nentropy = 0.912\nsamples = 171\nvalue = [56, 115]"] ;
83 -> 84 ;
85 [label="educate <= 0.5\nentropy = 0.904\nsamples = 169\nvalue = [54, 115]"] ;
84 -> 85 ;
86 [label="economic <= 0.5\nentropy = 0.895\nsamples = 167\nvalue = [52, 115]"] ;
85 -> 86 ;
87 [label="an <= 0.5\nentropy = 0.885\nsamples = 165\nvalue = [50, 115]"] ;
86 -> 87 ;
88 [label="heat <= 0.5\nentropy = 0.903\nsamples = 157\nvalue = [50, 107]"] ;
87 -> 88 ;
89 [label="tax <= 0.5\nentropy = 0.893\nsamples = 155\nvalue = [48, 107]"] ;
88 -> 89 ;
90 [label="entropy = 0.882\nsamples = 153\nvalue = [46, 107]"] ;
89 -> 90 ;
91 [label="entropy = 0.0\nsamples = 2\nvalue = [2, 0]"] ;
89 -> 91 ;
92 [label="entropy = 0.0\nsamples = 2\nvalue = [2, 0]"] ;
88 -> 92 ;
93 [label="entropy = 0.0\nsamples = 8\nvalue = [0, 8]"] ;
87 -> 93 ;
94 [label="entropy = 0.0\nsamples = 2\nvalue = [2, 0]"] ;
86 -> 94 ;
95 [label="entropy = 0.0\nsamples = 2\nvalue = [2, 0]"] ;
85 -> 95 ;
96 [label="entropy = 0.0\nsamples = 2\nvalue = [2, 0]"] ;
84 -> 96 ;
97 [label="entropy = 0.0\nsamples = 2\nvalue = [2, 0]"] ;
83 -> 97 ;
98 [label="entropy = 0.0\nsamples = 2\nvalue = [2, 0]"] ;
82 -> 98 ;
99 [label="entropy = 0.0\nsamples = 6\nvalue = [0, 6]"] ;
81 -> 99 ;
100 [label="entropy = 0.0\nsamples = 3\nvalue = [3, 0]"] ;
80 -> 100 ;
101 [label="entropy = 0.0\nsamples = 3\nvalue = [3, 0]"] ;
79 -> 101 ;
102 [label="entropy = 0.0\nsamples = 8\nvalue = [0, 8]"] ;
78 -> 102 ;
103 [label="#demandclimateaction <= 0.5\nentropy = 0.598\nsamples = 62\nvalue = [9, 53]"] ;
77 -> 103 ;
104 [label="yvpjung6y <= 0.5\nentropy = 0.636\nsamples = 56\nvalue = [9, 47]"] ;
103 -> 104 ;
105 [label="@cleanairmoms <= 0.5\nentropy = 0.559\nsamples = 46\nvalue = [6, 40]"] ;
104 -> 105 ;
106 [label="#savetheplanet <= 0.5\nentropy = 0.511\nsamples = 44\nvalue = [5, 39]"] ;
105 -> 106 ;
107 [label="#globalwarming @greenbiz <= 0.5\nentropy = 0.454\nsamples = 42\nvalue = [4, 38]"] ;
106 -> 107 ;
108 [label="@nwf <= 0.5\nentropy = 0.384\nsamples = 40\nvalue = [3, 37]"] ;
107 -> 108 ;
109 [label="real <= 0.5\nentropy = 0.303\nsamples = 37\nvalue = [2, 35]"] ;
108 -> 109 ;
110 [label="uxsj1nrzcv <= 0.5\nentropy = 0.196\nsamples = 33\nvalue = [1, 32]"] ;
109 -> 110 ;
111 [label="entropy = 0.0\nsamples = 15\nvalue = [0, 15]"] ;
110 -> 111 ;
112 [label="entropy = 0.31\nsamples = 18\nvalue = [1, 17]"] ;
110 -> 112 ;
113 [label="dangerous <= 0.5\nentropy = 0.811\nsamples = 4\nvalue = [1, 3]"] ;
109 -> 113 ;
114 [label="entropy = 1.0\nsamples = 2\nvalue = [1, 1]"] ;
113 -> 114 ;
115 [label="entropy = 0.0\nsamples = 2\nvalue = [0, 2]"] ;
113 -> 115 ;
116 [label="entropy = 0.918\nsamples = 3\nvalue = [1, 2]"] ;
108 -> 116 ;
117 [label="entropy = 1.0\nsamples = 2\nvalue = [1, 1]"] ;
107 -> 117 ;
118 [label="entropy = 1.0\nsamples = 2\nvalue = [1, 1]"] ;
106 -> 118 ;
119 [label="entropy = 1.0\nsamples = 2\nvalue = [1, 1]"] ;
105 -> 119 ;
120 [label="entropy = 0.881\nsamples = 10\nvalue = [3, 7]"] ;
104 -> 120 ;
121 [label="entropy = 0.0\nsamples = 6\nvalue = [0, 6]"] ;
103 -> 121 ;
122 [label="years <= 0.5\nentropy = 0.964\nsamples = 1103\nvalue = [428, 675]"] ;
0 -> 122 [labeldistance=2.5, labelangle=-45, headlabel="False"] ;
123 [label="changing <= 0.5\nentropy = 0.972\nsamples = 1036\nvalue = [417, 619]"] ;
122 -> 123 ;
124 [label="narrative <= 0.5\nentropy = 0.97\nsamples = 1027\nvalue = [409, 618]"] ;
123 -> 124 ;
125 [label="discussions <= 0.5\nentropy = 0.968\nsamples = 1022\nvalue = [404, 618]"] ;
124 -> 125 ;
126 [label="could <= 0.5\nentropy = 0.966\nsamples = 1017\nvalue = [399, 618]"] ;
125 -> 126 ;
127 [label="don <= 0.5\nentropy = 0.97\nsamples = 997\nvalue = [397, 600]"] ;
126 -> 127 ;
128 [label="house <= 0.5\nentropy = 0.974\nsamples = 966\nvalue = [392, 574]"] ;
127 -> 128 ;
129 [label="via <= 0.5\nentropy = 0.976\nsamples = 958\nvalue = [392, 566]"] ;
128 -> 129 ;
130 [label="says <= 0.5\nentropy = 0.98\nsamples = 929\nvalue = [387, 542]"] ;
129 -> 130 ;
131 [label="matter <= 0.5\nentropy = 0.984\nsamples = 897\nvalue = [381, 516]"] ;
130 -> 131 ;
132 [label="climate scam <= 0.5\nentropy = 0.982\nsamples = 893\nvalue = [377, 516]"] ;
131 -> 132 ;
133 [label="course <= 0.5\nentropy = 0.981\nsamples = 889\nvalue = [373, 516]"] ;
132 -> 133 ;
134 [label="summit <= 0.5\nentropy = 0.98\nsamples = 885\nvalue = [369, 516]"] ;
133 -> 134 ;
135 [label="week <= 0.5\nentropy = 0.979\nsamples = 881\nvalue = [365, 516]"] ;
134 -> 135 ;
136 [label="entropy = 0.981\nsamples = 873\nvalue = [365, 508]"] ;
135 -> 136 ;
137 [label="entropy = 0.0\nsamples = 8\nvalue = [0, 8]"] ;
135 -> 137 ;
138 [label="entropy = 0.0\nsamples = 4\nvalue = [4, 0]"] ;
134 -> 138 ;
139 [label="entropy = 0.0\nsamples = 4\nvalue = [4, 0]"] ;
133 -> 139 ;
140 [label="entropy = 0.0\nsamples = 4\nvalue = [4, 0]"] ;
132 -> 140 ;
141 [label="entropy = 0.0\nsamples = 4\nvalue = [4, 0]"] ;
131 -> 141 ;
142 [label="says <= 1.5\nentropy = 0.696\nsamples = 32\nvalue = [6, 26]"] ;
130 -> 142 ;
143 [label="opponent <= 0.5\nentropy = 0.592\nsamples = 28\nvalue = [4, 24]"] ;
142 -> 143 ;
144 [label="how <= 0.5\nentropy = 0.516\nsamples = 26\nvalue = [3, 23]"] ;
143 -> 144 ;
145 [label="climate report <= 0.5\nentropy = 0.414\nsamples = 24\nvalue = [2, 22]"] ;
144 -> 145 ;
146 [label="https <= 0.5\nentropy = 0.267\nsamples = 22\nvalue = [1, 21]"] ;
145 -> 146 ;
147 [label="entropy = 0.353\nsamples = 15\nvalue = [1, 14]"] ;
146 -> 147 ;
148 [label="entropy = 0.0\nsamples = 7\nvalue = [0, 7]"] ;
146 -> 148 ;
149 [label="entropy = 1.0\nsamples = 2\nvalue = [1, 1]"] ;
145 -> 149 ;
150 [label="entropy = 1.0\nsamples = 2\nvalue = [1, 1]"] ;
144 -> 150 ;
151 [label="entropy = 1.0\nsamples = 2\nvalue = [1, 1]"] ;
143 -> 151 ;
152 [label="but <= 0.5\nentropy = 1.0\nsamples = 4\nvalue = [2, 2]"] ;
142 -> 152 ;
153 [label="entropy = 1.0\nsamples = 2\nvalue = [1, 1]"] ;
152 -> 153 ;
154 [label="entropy = 1.0\nsamples = 2\nvalue = [1, 1]"] ;
152 -> 154 ;
155 [label="climate https <= 0.5\nentropy = 0.663\nsamples = 29\nvalue = [5, 24]"] ;
129 -> 155 ;
156 [label="un <= 0.5\nentropy = 0.722\nsamples = 25\nvalue = [5, 20]"] ;
155 -> 156 ;
157 [label="fight <= 0.5\nentropy = 0.773\nsamples = 22\nvalue = [5, 17]"] ;
156 -> 157 ;
158 [label="co <= 1.5\nentropy = 0.831\nsamples = 19\nvalue = [5, 14]"] ;
157 -> 158 ;
159 [label="uk <= 0.5\nentropy = 0.896\nsamples = 16\nvalue = [5, 11]"] ;
158 -> 159 ;
160 [label="what <= 0.5\nentropy = 0.94\nsamples = 14\nvalue = [5, 9]"] ;
159 -> 160 ;
161 [label="entropy = 0.918\nsamples = 12\nvalue = [4, 8]"] ;
160 -> 161 ;
162 [label="entropy = 1.0\nsamples = 2\nvalue = [1, 1]"] ;
160 -> 162 ;
163 [label="entropy = 0.0\nsamples = 2\nvalue = [0, 2]"] ;
159 -> 163 ;
164 [label="entropy = 0.0\nsamples = 3\nvalue = [0, 3]"] ;
158 -> 164 ;
165 [label="entropy = 0.0\nsamples = 3\nvalue = [0, 3]"] ;
157 -> 165 ;
166 [label="entropy = 0.0\nsamples = 3\nvalue = [0, 3]"] ;
156 -> 166 ;
167 [label="entropy = 0.0\nsamples = 4\nvalue = [0, 4]"] ;
155 -> 167 ;
168 [label="entropy = 0.0\nsamples = 8\nvalue = [0, 8]"] ;
128 -> 168 ;
169 [label="way <= 0.5\nentropy = 0.637\nsamples = 31\nvalue = [5, 26]"] ;
127 -> 169 ;
170 [label="there <= 0.5\nentropy = 0.48\nsamples = 29\nvalue = [3, 26]"] ;
169 -> 170 ;
171 [label="understand <= 0.5\nentropy = 0.235\nsamples = 26\nvalue = [1, 25]"] ;
170 -> 171 ;
172 [label="entropy = 0.0\nsamples = 24\nvalue = [0, 24]"] ;
171 -> 172 ;
173 [label="entropy = 1.0\nsamples = 2\nvalue = [1, 1]"] ;
171 -> 173 ;
174 [label="entropy = 0.918\nsamples = 3\nvalue = [2, 1]"] ;
170 -> 174 ;
175 [label="entropy = 0.0\nsamples = 2\nvalue = [2, 0]"] ;
169 -> 175 ;
176 [label="diminish <= 0.5\nentropy = 0.469\nsamples = 20\nvalue = [2, 18]"] ;
126 -> 176 ;
177 [label="extinction <= 0.5\nentropy = 0.31\nsamples = 18\nvalue = [1, 17]"] ;
176 -> 177 ;
178 [label="entropy = 0.0\nsamples = 16\nvalue = [0, 16]"] ;
177 -> 178 ;
179 [label="entropy = 1.0\nsamples = 2\nvalue = [1, 1]"] ;
177 -> 179 ;
180 [label="entropy = 1.0\nsamples = 2\nvalue = [1, 1]"] ;
176 -> 180 ;
181 [label="entropy = 0.0\nsamples = 5\nvalue = [5, 0]"] ;
125 -> 181 ;
182 [label="entropy = 0.0\nsamples = 5\nvalue = [5, 0]"] ;
124 -> 182 ;
183 [label="one <= 0.5\nentropy = 0.503\nsamples = 9\nvalue = [8, 1]"] ;
123 -> 183 ;
184 [label="entropy = 0.0\nsamples = 7\nvalue = [7, 0]"] ;
183 -> 184 ;
185 [label="entropy = 1.0\nsamples = 2\nvalue = [1, 1]"] ;
183 -> 185 ;
186 [label="it's <= 0.5\nentropy = 0.644\nsamples = 67\nvalue = [11, 56]"] ;
122 -> 186 ;
187 [label="many <= 0.5\nentropy = 0.544\nsamples = 64\nvalue = [8, 56]"] ;
186 -> 187 ;
188 [label="https <= 0.5\nentropy = 0.459\nsamples = 62\nvalue = [6, 56]"] ;
187 -> 188 ;
189 [label="people <= 0.5\nentropy = 0.567\nsamples = 45\nvalue = [6, 39]"] ;
188 -> 189 ;
190 [label="un <= 0.5\nentropy = 0.639\nsamples = 37\nvalue = [6, 31]"] ;
189 -> 190 ;
191 [label="left <= 0.5\nentropy = 0.736\nsamples = 29\nvalue = [6, 23]"] ;
190 -> 191 ;
192 [label="or <= 0.5\nentropy = 0.845\nsamples = 22\nvalue = [6, 16]"] ;
191 -> 192 ;
193 [label="next <= 0.5\nentropy = 0.918\nsamples = 18\nvalue = [6, 12]"] ;
192 -> 193 ;
194 [label="than <= 0.5\nentropy = 0.985\nsamples = 14\nvalue = [6, 8]"] ;
193 -> 194 ;
195 [label="there <= 0.5\nentropy = 0.994\nsamples = 11\nvalue = [6, 5]"] ;
194 -> 195 ;
196 [label="happening <= 0.5\nentropy = 0.918\nsamples = 9\nvalue = [6, 3]"] ;
195 -> 196 ;
197 [label="over <= 0.5\nentropy = 0.863\nsamples = 7\nvalue = [5, 2]"] ;
196 -> 197 ;
198 [label="entropy = 0.722\nsamples = 5\nvalue = [4, 1]"] ;
197 -> 198 ;
199 [label="entropy = 1.0\nsamples = 2\nvalue = [1, 1]"] ;
197 -> 199 ;
200 [label="entropy = 1.0\nsamples = 2\nvalue = [1, 1]"] ;
196 -> 200 ;
201 [label="entropy = 0.0\nsamples = 2\nvalue = [0, 2]"] ;
195 -> 201 ;
202 [label="entropy = 0.0\nsamples = 3\nvalue = [0, 3]"] ;
194 -> 202 ;
203 [label="entropy = 0.0\nsamples = 4\nvalue = [0, 4]"] ;
193 -> 203 ;
204 [label="entropy = 0.0\nsamples = 4\nvalue = [0, 4]"] ;
192 -> 204 ;
205 [label="entropy = 0.0\nsamples = 7\nvalue = [0, 7]"] ;
191 -> 205 ;
206 [label="entropy = 0.0\nsamples = 8\nvalue = [0, 8]"] ;
190 -> 206 ;
207 [label="entropy = 0.0\nsamples = 8\nvalue = [0, 8]"] ;
189 -> 207 ;
208 [label="entropy = 0.0\nsamples = 17\nvalue = [0, 17]"] ;
188 -> 208 ;
209 [label="entropy = 0.0\nsamples = 2\nvalue = [2, 0]"] ;
187 -> 209 ;
210 [label="entropy = 0.0\nsamples = 3\nvalue = [3, 0]"] ;
186 -> 210 ;
}
