digraph Tree {
node [shape=box] ;
0 [label="climate <= 0.5\nentropy = 0.998\nsamples = 2227\nvalue = [1056, 1171]"] ;
1 [label="#climatechange <= 0.5\nentropy = 0.983\nsamples = 1124\nvalue = [647, 477]"] ;
0 -> 1 [labeldistance=2.5, labelangle=45, headlabel="True"] ;
2 [label="carbon <= 0.5\nentropy = 0.936\nsamples = 886\nvalue = [574, 312]"] ;
1 -> 2 ;
3 [label="#climatechangeisreal <= 0.5\nentropy = 0.926\nsamples = 864\nvalue = [569, 295]"] ;
2 -> 3 ;
4 [label="#actonclimate <= 0.5\nentropy = 0.919\nsamples = 853\nvalue = [568, 285]"] ;
3 -> 4 ;
5 [label="people <= 0.5\nentropy = 0.909\nsamples = 833\nvalue = [563, 270]"] ;
4 -> 5 ;
6 [label="companies <= 0.5\nentropy = 0.922\nsamples = 786\nvalue = [521, 265]"] ;
5 -> 6 ;
7 [label="@ipcc_ch <= 0.5\nentropy = 0.913\nsamples = 768\nvalue = [516, 252]"] ;
6 -> 7 ;
8 [label="threat <= 0.5\nentropy = 0.905\nsamples = 757\nvalue = [514, 243]"] ;
7 -> 8 ;
9 [label="states <= 0.5\nentropy = 0.901\nsamples = 752\nvalue = [514, 238]"] ;
8 -> 9 ;
10 [label="measures <= 0.5\nentropy = 0.895\nsamples = 747\nvalue = [514, 233]"] ;
9 -> 10 ;
11 [label="at <= 1.5\nentropy = 0.891\nsamples = 743\nvalue = [514, 229]"] ;
10 -> 11 ;
12 [label="only years <= 0.5\nentropy = 0.887\nsamples = 739\nvalue = [514, 225]"] ;
11 -> 12 ;
13 [label="dying <= 0.5\nentropy = 0.882\nsamples = 735\nvalue = [514, 221]"] ;
12 -> 13 ;
14 [label="issues <= 0.5\nentropy = 0.877\nsamples = 731\nvalue = [514, 217]"] ;
13 -> 14 ;
15 [label="entropy = 0.873\nsamples = 727\nvalue = [514, 213]"] ;
14 -> 15 ;
16 [label="entropy = 0.0\nsamples = 4\nvalue = [0, 4]"] ;
14 -> 16 ;
17 [label="entropy = 0.0\nsamples = 4\nvalue = [0, 4]"] ;
13 -> 17 ;
18 [label="entropy = 0.0\nsamples = 4\nvalue = [0, 4]"] ;
12 -> 18 ;
19 [label="entropy = 0.0\nsamples = 4\nvalue = [0, 4]"] ;
11 -> 19 ;
20 [label="entropy = 0.0\nsamples = 4\nvalue = [0, 4]"] ;
10 -> 20 ;
21 [label="entropy = 0.0\nsamples = 5\nvalue = [0, 5]"] ;
9 -> 21 ;
22 [label="entropy = 0.0\nsamples = 5\nvalue = [0, 5]"] ;
8 -> 22 ;
23 [label="now <= 0.5\nentropy = 0.684\nsamples = 11\nvalue = [2, 9]"] ;
7 -> 23 ;
24 [label="new @ipcc_ch <= 0.5\nentropy = 0.811\nsamples = 8\nvalue = [2, 6]"] ;
23 -> 24 ;
25 [label="global warming <= 0.5\nentropy = 0.918\nsamples = 6\nvalue = [2, 4]"] ;
24 -> 25 ;
26 [label="call <= 0.5\nentropy = 0.811\nsamples = 4\nvalue = [1, 3]"] ;
25 -> 26 ;
27 [label="entropy = 0.0\nsamples = 2\nvalue = [0, 2]"] ;
26 -> 27 ;
28 [label="entropy = 1.0\nsamples = 2\nvalue = [1, 1]"] ;
26 -> 28 ;
29 [label="entropy = 1.0\nsamples = 2\nvalue = [1, 1]"] ;
25 -> 29 ;
30 [label="entropy = 0.0\nsamples = 2\nvalue = [0, 2]"] ;
24 -> 30 ;
31 [label="entropy = 0.0\nsamples = 3\nvalue = [0, 3]"] ;
23 -> 31 ;
32 [label="do <= 0.5\nentropy = 0.852\nsamples = 18\nvalue = [5, 13]"] ;
6 -> 32 ;
33 [label="responsible global <= 0.5\nentropy = 0.722\nsamples = 15\nvalue = [3, 12]"] ;
32 -> 33 ;
34 [label="producing <= 0.5\nentropy = 0.469\nsamples = 10\nvalue = [1, 9]"] ;
33 -> 34 ;
35 [label="entropy = 0.0\nsamples = 8\nvalue = [0, 8]"] ;
34 -> 35 ;
36 [label="entropy = 1.0\nsamples = 2\nvalue = [1, 1]"] ;
34 -> 36 ;
37 [label="co <= 0.5\nentropy = 0.971\nsamples = 5\nvalue = [2, 3]"] ;
33 -> 37 ;
38 [label="entropy = 1.0\nsamples = 2\nvalue = [1, 1]"] ;
37 -> 38 ;
39 [label="entropy = 0.918\nsamples = 3\nvalue = [1, 2]"] ;
37 -> 39 ;
40 [label="entropy = 0.918\nsamples = 3\nvalue = [2, 1]"] ;
32 -> 40 ;
41 [label="care <= 0.5\nentropy = 0.489\nsamples = 47\nvalue = [42, 5]"] ;
5 -> 41 ;
42 [label="because <= 0.5\nentropy = 0.353\nsamples = 45\nvalue = [42, 3]"] ;
41 -> 42 ;
43 [label="entropy = 0.0\nsamples = 40\nvalue = [40, 0]"] ;
42 -> 43 ;
44 [label="risk <= 0.5\nentropy = 0.971\nsamples = 5\nvalue = [2, 3]"] ;
42 -> 44 ;
45 [label="entropy = 0.918\nsamples = 3\nvalue = [1, 2]"] ;
44 -> 45 ;
46 [label="entropy = 1.0\nsamples = 2\nvalue = [1, 1]"] ;
44 -> 46 ;
47 [label="entropy = 0.0\nsamples = 2\nvalue = [0, 2]"] ;
41 -> 47 ;
48 [label="https <= 0.5\nentropy = 0.811\nsamples = 20\nvalue = [5, 15]"] ;
4 -> 48 ;
49 [label="#cpp rumored <= 0.5\nentropy = 0.592\nsamples = 14\nvalue = [2, 12]"] ;
48 -> 49 ;
50 [label="entropy = 0.0\nsamples = 4\nvalue = [0, 4]"] ;
49 -> 50 ;
51 [label="entropy = 0.722\nsamples = 10\nvalue = [2, 8]"] ;
49 -> 51 ;
52 [label="entropy = 1.0\nsamples = 6\nvalue = [3, 3]"] ;
48 -> 52 ;
53 [label="just <= 0.5\nentropy = 0.439\nsamples = 11\nvalue = [1, 10]"] ;
3 -> 53 ;
54 [label="entropy = 0.0\nsamples = 9\nvalue = [0, 9]"] ;
53 -> 54 ;
55 [label="entropy = 1.0\nsamples = 2\nvalue = [1, 1]"] ;
53 -> 55 ;
56 [label="canada <= 0.5\nentropy = 0.773\nsamples = 22\nvalue = [5, 17]"] ;
2 -> 56 ;
57 [label="when <= 0.5\nentropy = 0.629\nsamples = 19\nvalue = [3, 16]"] ;
56 -> 57 ;
58 [label="emissions <= 0.5\nentropy = 0.371\nsamples = 14\nvalue = [1, 13]"] ;
57 -> 58 ;
59 [label="at <= 0.5\nentropy = 0.469\nsamples = 10\nvalue = [1, 9]"] ;
58 -> 59 ;
60 [label="but <= 0.5\nentropy = 0.544\nsamples = 8\nvalue = [1, 7]"] ;
59 -> 60 ;
61 [label="no <= 0.5\nentropy = 0.65\nsamples = 6\nvalue = [1, 5]"] ;
60 -> 61 ;
62 [label="entropy = 0.811\nsamples = 4\nvalue = [1, 3]"] ;
61 -> 62 ;
63 [label="entropy = 0.0\nsamples = 2\nvalue = [0, 2]"] ;
61 -> 63 ;
64 [label="entropy = 0.0\nsamples = 2\nvalue = [0, 2]"] ;
60 -> 64 ;
65 [label="entropy = 0.0\nsamples = 2\nvalue = [0, 2]"] ;
59 -> 65 ;
66 [label="entropy = 0.0\nsamples = 4\nvalue = [0, 4]"] ;
58 -> 66 ;
67 [label="effective <= 0.5\nentropy = 0.971\nsamples = 5\nvalue = [2, 3]"] ;
57 -> 67 ;
68 [label="entropy = 0.918\nsamples = 3\nvalue = [1, 2]"] ;
67 -> 68 ;
69 [label="entropy = 1.0\nsamples = 2\nvalue = [1, 1]"] ;
67 -> 69 ;
70 [label="entropy = 0.918\nsamples = 3\nvalue = [2, 1]"] ;
56 -> 70 ;
71 [label="@treehugger <= 0.5\nentropy = 0.889\nsamples = 238\nvalue = [73, 165]"] ;
1 -> 71 ;
72 [label="catastrophic <= 0.5\nentropy = 0.879\nsamples = 235\nvalue = [70, 165]"] ;
71 -> 72 ;
73 [label="why <= 0.5\nentropy = 0.922\nsamples = 187\nvalue = [63, 124]"] ;
72 -> 73 ;
74 [label="plan <= 0.5\nentropy = 0.936\nsamples = 179\nvalue = [63, 116]"] ;
73 -> 74 ;
75 [label="#climatechange real <= 0.5\nentropy = 0.948\nsamples = 172\nvalue = [63, 109]"] ;
74 -> 75 ;
76 [label="us <= 0.5\nentropy = 0.958\nsamples = 166\nvalue = [63, 103]"] ;
75 -> 76 ;
77 [label="#climatechange report <= 0.5\nentropy = 0.966\nsamples = 161\nvalue = [63, 98]"] ;
76 -> 77 ;
78 [label="act <= 0.5\nentropy = 0.972\nsamples = 157\nvalue = [63, 94]"] ;
77 -> 78 ;
79 [label="when <= 0.5\nentropy = 0.965\nsamples = 154\nvalue = [60, 94]"] ;
78 -> 79 ;
80 [label="latest <= 0.5\nentropy = 0.971\nsamples = 150\nvalue = [60, 90]"] ;
79 -> 80 ;
81 [label="global <= 0.5\nentropy = 0.977\nsamples = 146\nvalue = [60, 86]"] ;
80 -> 81 ;
82 [label="believe <= 0.5\nentropy = 0.967\nsamples = 140\nvalue = [55, 85]"] ;
81 -> 82 ;
83 [label="might <= 0.5\nentropy = 0.961\nsamples = 138\nvalue = [53, 85]"] ;
82 -> 83 ;
84 [label="entropy = 0.954\nsamples = 136\nvalue = [51, 85]"] ;
83 -> 84 ;
85 [label="entropy = 0.0\nsamples = 2\nvalue = [2, 0]"] ;
83 -> 85 ;
86 [label="entropy = 0.0\nsamples = 2\nvalue = [2, 0]"] ;
82 -> 86 ;
87 [label="making <= 0.5\nentropy = 0.65\nsamples = 6\nvalue = [5, 1]"] ;
81 -> 87 ;
88 [label="entropy = 0.0\nsamples = 4\nvalue = [4, 0]"] ;
87 -> 88 ;
89 [label="entropy = 1.0\nsamples = 2\nvalue = [1, 1]"] ;
87 -> 89 ;
90 [label="entropy = 0.0\nsamples = 4\nvalue = [0, 4]"] ;
80 -> 90 ;
91 [label="entropy = 0.0\nsamples = 4\nvalue = [0, 4]"] ;
79 -> 91 ;
92 [label="entropy = 0.0\nsamples = 3\nvalue = [3, 0]"] ;
78 -> 92 ;
93 [label="entropy = 0.0\nsamples = 4\nvalue = [0, 4]"] ;
77 -> 93 ;
94 [label="entropy = 0.0\nsamples = 5\nvalue = [0, 5]"] ;
76 -> 94 ;
95 [label="entropy = 0.0\nsamples = 6\nvalue = [0, 6]"] ;
75 -> 95 ;
96 [label="entropy = 0.0\nsamples = 7\nvalue = [0, 7]"] ;
74 -> 96 ;
97 [label="entropy = 0.0\nsamples = 8\nvalue = [0, 8]"] ;
73 -> 97 ;
98 [label="co yvpjung6y <= 0.5\nentropy = 0.599\nsamples = 48\nvalue = [7, 41]"] ;
72 -> 98 ;
99 [label="#globalwarming @greenbiz <= 0.5\nentropy = 0.477\nsamples = 39\nvalue = [4, 35]"] ;
98 -> 99 ;
100 [label="@cleanairmoms <= 0.5\nentropy = 0.406\nsamples = 37\nvalue = [3, 34]"] ;
99 -> 100 ;
101 [label="sah9coi05 #globalwarming <= 0.5\nentropy = 0.316\nsamples = 35\nvalue = [2, 33]"] ;
100 -> 101 ;
102 [label="entropy = 0.0\nsamples = 25\nvalue = [0, 25]"] ;
101 -> 102 ;
103 [label="#demandclimateaction <= 0.5\nentropy = 0.722\nsamples = 10\nvalue = [2, 8]"] ;
101 -> 103 ;
104 [label="entropy = 0.65\nsamples = 6\nvalue = [1, 5]"] ;
103 -> 104 ;
105 [label="entropy = 0.811\nsamples = 4\nvalue = [1, 3]"] ;
103 -> 105 ;
106 [label="entropy = 1.0\nsamples = 2\nvalue = [1, 1]"] ;
100 -> 106 ;
107 [label="entropy = 1.0\nsamples = 2\nvalue = [1, 1]"] ;
99 -> 107 ;
108 [label="entropy = 0.918\nsamples = 9\nvalue = [3, 6]"] ;
98 -> 108 ;
109 [label="entropy = 0.0\nsamples = 3\nvalue = [3, 0]"] ;
71 -> 109 ;
110 [label="world <= 0.5\nentropy = 0.951\nsamples = 1103\nvalue = [409, 694]"] ;
0 -> 110 [labeldistance=2.5, labelangle=-45, headlabel="False"] ;
111 [label="everything <= 0.5\nentropy = 0.959\nsamples = 1060\nvalue = [404, 656]"] ;
110 -> 111 ;
112 [label="catastrophic <= 0.5\nentropy = 0.956\nsamples = 1054\nvalue = [398, 656]"] ;
111 -> 112 ;
113 [label="climate only <= 0.5\nentropy = 0.961\nsamples = 1035\nvalue = [397, 638]"] ;
112 -> 113 ;
114 [label="don <= 0.5\nentropy = 0.963\nsamples = 1025\nvalue = [397, 628]"] ;
113 -> 114 ;
115 [label="global <= 1.5\nentropy = 0.967\nsamples = 997\nvalue = [393, 604]"] ;
114 -> 115 ;
116 [label="they re <= 0.5\nentropy = 0.965\nsamples = 989\nvalue = [386, 603]"] ;
115 -> 116 ;
117 [label="idiots <= 0.5\nentropy = 0.963\nsamples = 985\nvalue = [382, 603]"] ;
116 -> 117 ;
118 [label="climate when <= 0.5\nentropy = 0.962\nsamples = 981\nvalue = [378, 603]"] ;
117 -> 118 ;
119 [label="which <= 0.5\nentropy = 0.96\nsamples = 977\nvalue = [374, 603]"] ;
118 -> 119 ;
120 [label="anthropogenic climate <= 0.5\nentropy = 0.956\nsamples = 962\nvalue = [363, 599]"] ;
119 -> 120 ;
121 [label="carbon <= 1.5\nentropy = 0.954\nsamples = 958\nvalue = [359, 599]"] ;
120 -> 121 ;
122 [label="discussions <= 0.5\nentropy = 0.952\nsamples = 954\nvalue = [355, 599]"] ;
121 -> 122 ;
123 [label="see <= 0.5\nentropy = 0.95\nsamples = 950\nvalue = [351, 599]"] ;
122 -> 123 ;
124 [label="entropy = 0.945\nsamples = 931\nvalue = [338, 593]"] ;
123 -> 124 ;
125 [label="entropy = 0.9\nsamples = 19\nvalue = [13, 6]"] ;
123 -> 125 ;
126 [label="entropy = 0.0\nsamples = 4\nvalue = [4, 0]"] ;
122 -> 126 ;
127 [label="entropy = 0.0\nsamples = 4\nvalue = [4, 0]"] ;
121 -> 127 ;
128 [label="entropy = 0.0\nsamples = 4\nvalue = [4, 0]"] ;
120 -> 128 ;
129 [label="only <= 0.5\nentropy = 0.837\nsamples = 15\nvalue = [11, 4]"] ;
119 -> 129 ;
130 [label="made <= 0.5\nentropy = 0.65\nsamples = 12\nvalue = [10, 2]"] ;
129 -> 130 ;
131 [label="climate <= 1.5\nentropy = 0.469\nsamples = 10\nvalue = [9, 1]"] ;
130 -> 131 ;
132 [label="entropy = 0.0\nsamples = 6\nvalue = [6, 0]"] ;
131 -> 132 ;
133 [label="real <= 0.5\nentropy = 0.811\nsamples = 4\nvalue = [3, 1]"] ;
131 -> 133 ;
134 [label="entropy = 1.0\nsamples = 2\nvalue = [1, 1]"] ;
133 -> 134 ;
135 [label="entropy = 0.0\nsamples = 2\nvalue = [2, 0]"] ;
133 -> 135 ;
136 [label="entropy = 1.0\nsamples = 2\nvalue = [1, 1]"] ;
130 -> 136 ;
137 [label="entropy = 0.918\nsamples = 3\nvalue = [1, 2]"] ;
129 -> 137 ;
138 [label="entropy = 0.0\nsamples = 4\nvalue = [4, 0]"] ;
118 -> 138 ;
139 [label="entropy = 0.0\nsamples = 4\nvalue = [4, 0]"] ;
117 -> 139 ;
140 [label="entropy = 0.0\nsamples = 4\nvalue = [4, 0]"] ;
116 -> 140 ;
141 [label="if <= 0.5\nentropy = 0.544\nsamples = 8\nvalue = [7, 1]"] ;
115 -> 141 ;
142 [label="entropy = 0.0\nsamples = 6\nvalue = [6, 0]"] ;
141 -> 142 ;
143 [label="entropy = 1.0\nsamples = 2\nvalue = [1, 1]"] ;
141 -> 143 ;
144 [label="way <= 0.5\nentropy = 0.592\nsamples = 28\nvalue = [4, 24]"] ;
114 -> 144 ;
145 [label="love <= 0.5\nentropy = 0.391\nsamples = 26\nvalue = [2, 24]"] ;
144 -> 145 ;
146 [label="or <= 0.5\nentropy = 0.25\nsamples = 24\nvalue = [1, 23]"] ;
145 -> 146 ;
147 [label="entropy = 0.0\nsamples = 19\nvalue = [0, 19]"] ;
146 -> 147 ;
148 [label="global warming <= 0.5\nentropy = 0.722\nsamples = 5\nvalue = [1, 4]"] ;
146 -> 148 ;
149 [label="entropy = 1.0\nsamples = 2\nvalue = [1, 1]"] ;
148 -> 149 ;
150 [label="entropy = 0.0\nsamples = 3\nvalue = [0, 3]"] ;
148 -> 150 ;
151 [label="entropy = 1.0\nsamples = 2\nvalue = [1, 1]"] ;
145 -> 151 ;
152 [label="entropy = 0.0\nsamples = 2\nvalue = [2, 0]"] ;
144 -> 152 ;
153 [label="entropy = 0.0\nsamples = 10\nvalue = [0, 10]"] ;
113 -> 153 ;
154 [label="well <= 0.5\nentropy = 0.297\nsamples = 19\nvalue = [1, 18]"] ;
112 -> 154 ;
155 [label="entropy = 0.0\nsamples = 17\nvalue = [0, 17]"] ;
154 -> 155 ;
156 [label="entropy = 1.0\nsamples = 2\nvalue = [1, 1]"] ;
154 -> 156 ;
157 [label="entropy = 0.0\nsamples = 6\nvalue = [6, 0]"] ;
111 -> 157 ;
158 [label="like <= 0.5\nentropy = 0.519\nsamples = 43\nvalue = [5, 38]"] ;
110 -> 158 ;
159 [label="immediate <= 0.5\nentropy = 0.286\nsamples = 40\nvalue = [2, 38]"] ;
158 -> 159 ;
160 [label="was <= 0.5\nentropy = 0.176\nsamples = 38\nvalue = [1, 37]"] ;
159 -> 160 ;
161 [label="entropy = 0.0\nsamples = 36\nvalue = [0, 36]"] ;
160 -> 161 ;
162 [label="entropy = 1.0\nsamples = 2\nvalue = [1, 1]"] ;
160 -> 162 ;
163 [label="entropy = 1.0\nsamples = 2\nvalue = [1, 1]"] ;
159 -> 163 ;
164 [label="entropy = 0.0\nsamples = 3\nvalue = [3, 0]"] ;
158 -> 164 ;
}
