digraph Tree {
node [shape=box] ;
0 [label="('climate', 'e') <= 0.5\nentropy = 0.998\nsamples = 2306\nvalue = [1093, 1213]"] ;
1 [label="('#climatechange', 'e') <= 0.5\nentropy = 0.987\nsamples = 1167\nvalue = [662, 505]"] ;
0 -> 1 [labeldistance=2.5, labelangle=45, headlabel="True"] ;
2 [label="('our', 'r') <= 0.5\nentropy = 0.937\nsamples = 900\nvalue = [582, 318]"] ;
1 -> 2 ;
3 [label="('5', '5') <= 0.5\nentropy = 0.915\nsamples = 812\nvalue = [544, 268]"] ;
2 -> 3 ;
4 [label="('100', '0') <= 0.5\nentropy = 0.904\nsamples = 792\nvalue = [539, 253]"] ;
3 -> 4 ;
5 [label="('#climatechangeisreal', 'l') <= 0.5\nentropy = 0.893\nsamples = 775\nvalue = [535, 240]"] ;
4 -> 5 ;
6 [label="('threat', 't') <= 0.5\nentropy = 0.883\nsamples = 763\nvalue = [533, 230]"] ;
5 -> 6 ;
7 [label="('reduce', 'e') <= 0.5\nentropy = 0.876\nsamples = 757\nvalue = [533, 224]"] ;
6 -> 7 ;
8 [label="('two', 'o') <= 0.5\nentropy = 0.867\nsamples = 748\nvalue = [532, 216]"] ;
7 -> 8 ;
9 [label="('congress', 's') <= 0.5\nentropy = 0.861\nsamples = 743\nvalue = [532, 211]"] ;
8 -> 9 ;
10 [label="entropy = 0.854\nsamples = 738\nvalue = [532, 206]"] ;
9 -> 10 ;
11 [label="entropy = 0.0\nsamples = 5\nvalue = [0, 5]"] ;
9 -> 11 ;
12 [label="entropy = 0.0\nsamples = 5\nvalue = [0, 5]"] ;
8 -> 12 ;
13 [label="entropy = 0.503\nsamples = 9\nvalue = [1, 8]"] ;
7 -> 13 ;
14 [label="entropy = 0.0\nsamples = 6\nvalue = [0, 6]"] ;
6 -> 14 ;
15 [label="('https', 's') <= 0.5\nentropy = 0.65\nsamples = 12\nvalue = [2, 10]"] ;
5 -> 15 ;
16 [label="entropy = 0.0\nsamples = 6\nvalue = [0, 6]"] ;
15 -> 16 ;
17 [label="entropy = 0.918\nsamples = 6\nvalue = [2, 4]"] ;
15 -> 17 ;
18 [label="('co', 'o') <= 0.5\nentropy = 0.787\nsamples = 17\nvalue = [4, 13]"] ;
4 -> 18 ;
19 [label="('are', 'e') <= 0.5\nentropy = 0.684\nsamples = 11\nvalue = [2, 9]"] ;
18 -> 19 ;
20 [label="entropy = 0.0\nsamples = 6\nvalue = [0, 6]"] ;
19 -> 20 ;
21 [label="entropy = 0.971\nsamples = 5\nvalue = [2, 3]"] ;
19 -> 21 ;
22 [label="entropy = 0.918\nsamples = 6\nvalue = [2, 4]"] ;
18 -> 22 ;
23 [label="('1', '1') <= 0.5\nentropy = 0.811\nsamples = 20\nvalue = [5, 15]"] ;
3 -> 23 ;
24 [label="entropy = 0.985\nsamples = 7\nvalue = [4, 3]"] ;
23 -> 24 ;
25 [label="('to', 'o') <= 0.5\nentropy = 0.391\nsamples = 13\nvalue = [1, 12]"] ;
23 -> 25 ;
26 [label="entropy = 0.65\nsamples = 6\nvalue = [1, 5]"] ;
25 -> 26 ;
27 [label="entropy = 0.0\nsamples = 7\nvalue = [0, 7]"] ;
25 -> 27 ;
28 [label="('out', 't') <= 0.5\nentropy = 0.987\nsamples = 88\nvalue = [38, 50]"] ;
2 -> 28 ;
29 [label="('rt', 't') <= 0.5\nentropy = 1.0\nsamples = 71\nvalue = [36, 35]"] ;
28 -> 29 ;
30 [label="('of', 'f') <= 0.5\nentropy = 0.863\nsamples = 14\nvalue = [10, 4]"] ;
29 -> 30 ;
31 [label="entropy = 1.0\nsamples = 8\nvalue = [4, 4]"] ;
30 -> 31 ;
32 [label="entropy = 0.0\nsamples = 6\nvalue = [6, 0]"] ;
30 -> 32 ;
33 [label="('s', 's') <= 0.5\nentropy = 0.994\nsamples = 57\nvalue = [26, 31]"] ;
29 -> 33 ;
34 [label="('for', 'r') <= 0.5\nentropy = 0.999\nsamples = 44\nvalue = [23, 21]"] ;
33 -> 34 ;
35 [label="('and', 'd') <= 0.5\nentropy = 0.994\nsamples = 33\nvalue = [15, 18]"] ;
34 -> 35 ;
36 [label="('t', 't') <= 0.5\nentropy = 0.946\nsamples = 22\nvalue = [8, 14]"] ;
35 -> 36 ;
37 [label="('to', 'o') <= 0.5\nentropy = 0.722\nsamples = 10\nvalue = [2, 8]"] ;
36 -> 37 ;
38 [label="entropy = 0.722\nsamples = 5\nvalue = [1, 4]"] ;
37 -> 38 ;
39 [label="entropy = 0.722\nsamples = 5\nvalue = [1, 4]"] ;
37 -> 39 ;
40 [label="entropy = 1.0\nsamples = 12\nvalue = [6, 6]"] ;
36 -> 40 ;
41 [label="('on', 'n') <= 0.5\nentropy = 0.946\nsamples = 11\nvalue = [7, 4]"] ;
35 -> 41 ;
42 [label="entropy = 1.0\nsamples = 6\nvalue = [3, 3]"] ;
41 -> 42 ;
43 [label="entropy = 0.722\nsamples = 5\nvalue = [4, 1]"] ;
41 -> 43 ;
44 [label="('of', 'f') <= 0.5\nentropy = 0.845\nsamples = 11\nvalue = [8, 3]"] ;
34 -> 44 ;
45 [label="entropy = 0.918\nsamples = 6\nvalue = [4, 2]"] ;
44 -> 45 ;
46 [label="entropy = 0.722\nsamples = 5\nvalue = [4, 1]"] ;
44 -> 46 ;
47 [label="('t', 't') <= 0.5\nentropy = 0.779\nsamples = 13\nvalue = [3, 10]"] ;
33 -> 47 ;
48 [label="entropy = 0.985\nsamples = 7\nvalue = [3, 4]"] ;
47 -> 48 ;
49 [label="entropy = 0.0\nsamples = 6\nvalue = [0, 6]"] ;
47 -> 49 ;
50 [label="entropy = 0.523\nsamples = 17\nvalue = [2, 15]"] ;
28 -> 50 ;
51 [label="('catastrophic', 'c') <= 0.5\nentropy = 0.881\nsamples = 267\nvalue = [80, 187]"] ;
1 -> 51 ;
52 [label="('in', 'n') <= 1.5\nentropy = 0.929\nsamples = 206\nvalue = [71, 135]"] ;
51 -> 52 ;
53 [label="('why', 'y') <= 0.5\nentropy = 0.915\nsamples = 200\nvalue = [66, 134]"] ;
52 -> 53 ;
54 [label="('who', 'o') <= 0.5\nentropy = 0.925\nsamples = 194\nvalue = [66, 128]"] ;
53 -> 54 ;
55 [label="('t', 't') <= 1.5\nentropy = 0.911\nsamples = 187\nvalue = [61, 126]"] ;
54 -> 55 ;
56 [label="('#climateaction', 'n') <= 0.5\nentropy = 0.881\nsamples = 167\nvalue = [50, 117]"] ;
55 -> 56 ;
57 [label="('when', 'n') <= 0.5\nentropy = 0.896\nsamples = 160\nvalue = [50, 110]"] ;
56 -> 57 ;
58 [label="('how', 'w') <= 0.5\nentropy = 0.907\nsamples = 155\nvalue = [50, 105]"] ;
57 -> 58 ;
59 [label="entropy = 0.886\nsamples = 148\nvalue = [45, 103]"] ;
58 -> 59 ;
60 [label="entropy = 0.863\nsamples = 7\nvalue = [5, 2]"] ;
58 -> 60 ;
61 [label="entropy = 0.0\nsamples = 5\nvalue = [0, 5]"] ;
57 -> 61 ;
62 [label="entropy = 0.0\nsamples = 7\nvalue = [0, 7]"] ;
56 -> 62 ;
63 [label="('and', 'd') <= 0.5\nentropy = 0.993\nsamples = 20\nvalue = [11, 9]"] ;
55 -> 63 ;
64 [label="('of', 'f') <= 0.5\nentropy = 0.997\nsamples = 15\nvalue = [7, 8]"] ;
63 -> 64 ;
65 [label="entropy = 0.991\nsamples = 9\nvalue = [5, 4]"] ;
64 -> 65 ;
66 [label="entropy = 0.918\nsamples = 6\nvalue = [2, 4]"] ;
64 -> 66 ;
67 [label="entropy = 0.722\nsamples = 5\nvalue = [4, 1]"] ;
63 -> 67 ;
68 [label="entropy = 0.863\nsamples = 7\nvalue = [5, 2]"] ;
54 -> 68 ;
69 [label="entropy = 0.0\nsamples = 6\nvalue = [0, 6]"] ;
53 -> 69 ;
70 [label="entropy = 0.65\nsamples = 6\nvalue = [5, 1]"] ;
52 -> 70 ;
71 [label="('4yvpjung6y', 'y') <= 0.5\nentropy = 0.604\nsamples = 61\nvalue = [9, 52]"] ;
51 -> 71 ;
72 [label="('3sah9coi05', '5') <= 0.5\nentropy = 0.408\nsamples = 49\nvalue = [4, 45]"] ;
71 -> 72 ;
73 [label="('uxsj1nrzcv', 'v') <= 0.5\nentropy = 0.201\nsamples = 32\nvalue = [1, 31]"] ;
72 -> 73 ;
74 [label="entropy = 0.0\nsamples = 17\nvalue = [0, 17]"] ;
73 -> 74 ;
75 [label="entropy = 0.353\nsamples = 15\nvalue = [1, 14]"] ;
73 -> 75 ;
76 [label="('#demandclimateaction', 'n') <= 0.5\nentropy = 0.672\nsamples = 17\nvalue = [3, 14]"] ;
72 -> 76 ;
77 [label="entropy = 0.722\nsamples = 10\nvalue = [2, 8]"] ;
76 -> 77 ;
78 [label="entropy = 0.592\nsamples = 7\nvalue = [1, 6]"] ;
76 -> 78 ;
79 [label="entropy = 0.98\nsamples = 12\nvalue = [5, 7]"] ;
71 -> 79 ;
80 [label="('12', '2') <= 0.5\nentropy = 0.957\nsamples = 1139\nvalue = [431, 708]"] ;
0 -> 80 [labeldistance=2.5, labelangle=-45, headlabel="False"] ;
81 [label="('rt', 't') <= 0.5\nentropy = 0.964\nsamples = 1110\nvalue = [431, 679]"] ;
80 -> 81 ;
82 [label="('let', 't') <= 0.5\nentropy = 0.992\nsamples = 551\nvalue = [246, 305]"] ;
81 -> 82 ;
83 [label="('deniers', 's') <= 0.5\nentropy = 0.994\nsamples = 543\nvalue = [246, 297]"] ;
82 -> 83 ;
84 [label="('global', 'l') <= 1.5\nentropy = 0.996\nsamples = 526\nvalue = [244, 282]"] ;
83 -> 84 ;
85 [label="('good', 'd') <= 0.5\nentropy = 0.995\nsamples = 521\nvalue = [239, 282]"] ;
84 -> 85 ;
86 [label="('next', 't') <= 0.5\nentropy = 0.993\nsamples = 512\nvalue = [231, 281]"] ;
85 -> 86 ;
87 [label="('please', 'e') <= 0.5\nentropy = 0.995\nsamples = 506\nvalue = [231, 275]"] ;
86 -> 87 ;
88 [label="('levels', 's') <= 0.5\nentropy = 0.993\nsamples = 501\nvalue = [226, 275]"] ;
87 -> 88 ;
89 [label="entropy = 0.995\nsamples = 495\nvalue = [226, 269]"] ;
88 -> 89 ;
90 [label="entropy = 0.0\nsamples = 6\nvalue = [0, 6]"] ;
88 -> 90 ;
91 [label="entropy = 0.0\nsamples = 5\nvalue = [5, 0]"] ;
87 -> 91 ;
92 [label="entropy = 0.0\nsamples = 6\nvalue = [0, 6]"] ;
86 -> 92 ;
93 [label="entropy = 0.503\nsamples = 9\nvalue = [8, 1]"] ;
85 -> 93 ;
94 [label="entropy = 0.0\nsamples = 5\nvalue = [5, 0]"] ;
84 -> 94 ;
95 [label="('you', 'u') <= 0.5\nentropy = 0.523\nsamples = 17\nvalue = [2, 15]"] ;
83 -> 95 ;
96 [label="('are', 'e') <= 0.5\nentropy = 0.684\nsamples = 11\nvalue = [2, 9]"] ;
95 -> 96 ;
97 [label="entropy = 0.722\nsamples = 5\nvalue = [1, 4]"] ;
96 -> 97 ;
98 [label="entropy = 0.65\nsamples = 6\nvalue = [1, 5]"] ;
96 -> 98 ;
99 [label="entropy = 0.0\nsamples = 6\nvalue = [0, 6]"] ;
95 -> 99 ;
100 [label="entropy = 0.0\nsamples = 8\nvalue = [0, 8]"] ;
82 -> 100 ;
101 [label="('as', 's') <= 1.5\nentropy = 0.916\nsamples = 559\nvalue = [185, 374]"] ;
81 -> 101 ;
102 [label="('world', 'd') <= 0.5\nentropy = 0.909\nsamples = 552\nvalue = [179, 373]"] ;
101 -> 102 ;
103 [label="('live', 'e') <= 0.5\nentropy = 0.921\nsamples = 520\nvalue = [175, 345]"] ;
102 -> 103 ;
104 [label="('some', 'e') <= 0.5\nentropy = 0.914\nsamples = 511\nvalue = [168, 343]"] ;
103 -> 104 ;
105 [label="('still', 'l') <= 0.5\nentropy = 0.907\nsamples = 505\nvalue = [163, 342]"] ;
104 -> 105 ;
106 [label="('fight', 't') <= 0.5\nentropy = 0.913\nsamples = 497\nvalue = [163, 334]"] ;
105 -> 106 ;
107 [label="('state', 'e') <= 0.5\nentropy = 0.921\nsamples = 482\nvalue = [162, 320]"] ;
106 -> 107 ;
108 [label="entropy = 0.926\nsamples = 475\nvalue = [162, 313]"] ;
107 -> 108 ;
109 [label="entropy = 0.0\nsamples = 7\nvalue = [0, 7]"] ;
107 -> 109 ;
110 [label="('https', 's') <= 0.5\nentropy = 0.353\nsamples = 15\nvalue = [1, 14]"] ;
106 -> 110 ;
111 [label="entropy = 0.0\nsamples = 9\nvalue = [0, 9]"] ;
110 -> 111 ;
112 [label="entropy = 0.65\nsamples = 6\nvalue = [1, 5]"] ;
110 -> 112 ;
113 [label="entropy = 0.0\nsamples = 8\nvalue = [0, 8]"] ;
105 -> 113 ;
114 [label="entropy = 0.65\nsamples = 6\nvalue = [5, 1]"] ;
104 -> 114 ;
115 [label="entropy = 0.764\nsamples = 9\nvalue = [7, 2]"] ;
103 -> 115 ;
116 [label="('will', 'l') <= 0.5\nentropy = 0.544\nsamples = 32\nvalue = [4, 28]"] ;
102 -> 116 ;
117 [label="('has', 's') <= 0.5\nentropy = 0.229\nsamples = 27\nvalue = [1, 26]"] ;
116 -> 117 ;
118 [label="entropy = 0.0\nsamples = 21\nvalue = [0, 21]"] ;
117 -> 118 ;
119 [label="entropy = 0.65\nsamples = 6\nvalue = [1, 5]"] ;
117 -> 119 ;
120 [label="entropy = 0.971\nsamples = 5\nvalue = [3, 2]"] ;
116 -> 120 ;
121 [label="entropy = 0.592\nsamples = 7\nvalue = [6, 1]"] ;
101 -> 121 ;
122 [label="entropy = 0.0\nsamples = 29\nvalue = [0, 29]"] ;
80 -> 122 ;
}
