digraph Tree {
node [shape=box] ;
0 [label="('change', 'e') <= 0.5\nentropy = 0.998\nsamples = 2307\nvalue = [1094, 1213]"] ;
1 [label="('#climatechange', 'e') <= 0.5\nentropy = 0.989\nsamples = 1219\nvalue = [684, 535]"] ;
0 -> 1 [labeldistance=2.5, labelangle=45, headlabel="True"] ;
2 [label="('our', 'r') <= 0.5\nentropy = 0.942\nsamples = 949\nvalue = [608, 341]"] ;
1 -> 2 ;
3 [label="('rt', 't') <= 0.5\nentropy = 0.918\nsamples = 857\nvalue = [572, 285]"] ;
2 -> 3 ;
4 [label="('#climatechangeisreal', 'l') <= 0.5\nentropy = 0.79\nsamples = 291\nvalue = [222, 69]"] ;
3 -> 4 ;
5 [label="('https', 's') <= 0.5\nentropy = 0.753\nsamples = 282\nvalue = [221, 61]"] ;
4 -> 5 ;
6 [label="('your', 'r') <= 0.5\nentropy = 0.654\nsamples = 214\nvalue = [178, 36]"] ;
5 -> 6 ;
7 [label="('will', 'l') <= 0.5\nentropy = 0.621\nsamples = 207\nvalue = [175, 32]"] ;
6 -> 7 ;
8 [label="('to', 'o') <= 0.5\nentropy = 0.586\nsamples = 199\nvalue = [171, 28]"] ;
7 -> 8 ;
9 [label="('s', 's') <= 0.5\nentropy = 0.49\nsamples = 150\nvalue = [134, 16]"] ;
8 -> 9 ;
10 [label="entropy = 0.544\nsamples = 128\nvalue = [112, 16]"] ;
9 -> 10 ;
11 [label="entropy = 0.0\nsamples = 22\nvalue = [22, 0]"] ;
9 -> 11 ;
12 [label="('people', 'e') <= 0.5\nentropy = 0.803\nsamples = 49\nvalue = [37, 12]"] ;
8 -> 12 ;
13 [label="entropy = 0.854\nsamples = 43\nvalue = [31, 12]"] ;
12 -> 13 ;
14 [label="entropy = 0.0\nsamples = 6\nvalue = [6, 0]"] ;
12 -> 14 ;
15 [label="entropy = 1.0\nsamples = 8\nvalue = [4, 4]"] ;
7 -> 15 ;
16 [label="entropy = 0.985\nsamples = 7\nvalue = [3, 4]"] ;
6 -> 16 ;
17 [label="('of', 'f') <= 0.5\nentropy = 0.949\nsamples = 68\nvalue = [43, 25]"] ;
5 -> 17 ;
18 [label="('s', 's') <= 0.5\nentropy = 0.86\nsamples = 53\nvalue = [38, 15]"] ;
17 -> 18 ;
19 [label="('on', 'n') <= 0.5\nentropy = 0.926\nsamples = 44\nvalue = [29, 15]"] ;
18 -> 19 ;
20 [label="('by', 'y') <= 0.5\nentropy = 0.868\nsamples = 38\nvalue = [27, 11]"] ;
19 -> 20 ;
21 [label="entropy = 0.811\nsamples = 32\nvalue = [24, 8]"] ;
20 -> 21 ;
22 [label="entropy = 1.0\nsamples = 6\nvalue = [3, 3]"] ;
20 -> 22 ;
23 [label="entropy = 0.918\nsamples = 6\nvalue = [2, 4]"] ;
19 -> 23 ;
24 [label="entropy = 0.0\nsamples = 9\nvalue = [9, 0]"] ;
18 -> 24 ;
25 [label="('to', 'o') <= 0.5\nentropy = 0.918\nsamples = 15\nvalue = [5, 10]"] ;
17 -> 25 ;
26 [label="entropy = 0.0\nsamples = 7\nvalue = [0, 7]"] ;
25 -> 26 ;
27 [label="entropy = 0.954\nsamples = 8\nvalue = [5, 3]"] ;
25 -> 27 ;
28 [label="entropy = 0.503\nsamples = 9\nvalue = [1, 8]"] ;
4 -> 28 ;
29 [label="('report', 't') <= 0.5\nentropy = 0.959\nsamples = 566\nvalue = [350, 216]"] ;
3 -> 29 ;
30 [label="('https', 's') <= 0.5\nentropy = 0.944\nsamples = 529\nvalue = [338, 191]"] ;
29 -> 30 ;
31 [label="('not', 't') <= 0.5\nentropy = 0.973\nsamples = 392\nvalue = [234, 158]"] ;
30 -> 31 ;
32 [label="('we', 'e') <= 0.5\nentropy = 0.986\nsamples = 357\nvalue = [203, 154]"] ;
31 -> 32 ;
33 [label="('massive', 'e') <= 0.5\nentropy = 0.967\nsamples = 297\nvalue = [180, 117]"] ;
32 -> 33 ;
34 [label="('sea', 'a') <= 0.5\nentropy = 0.961\nsamples = 292\nvalue = [180, 112]"] ;
33 -> 34 ;
35 [label="entropy = 0.953\nsamples = 287\nvalue = [180, 107]"] ;
34 -> 35 ;
36 [label="entropy = 0.0\nsamples = 5\nvalue = [0, 5]"] ;
34 -> 36 ;
37 [label="entropy = 0.0\nsamples = 5\nvalue = [0, 5]"] ;
33 -> 37 ;
38 [label="('i', 'i') <= 0.5\nentropy = 0.96\nsamples = 60\nvalue = [23, 37]"] ;
32 -> 38 ;
39 [label="('t', 't') <= 0.5\nentropy = 0.936\nsamples = 54\nvalue = [19, 35]"] ;
38 -> 39 ;
40 [label="entropy = 0.887\nsamples = 46\nvalue = [14, 32]"] ;
39 -> 40 ;
41 [label="entropy = 0.954\nsamples = 8\nvalue = [5, 3]"] ;
39 -> 41 ;
42 [label="entropy = 0.918\nsamples = 6\nvalue = [4, 2]"] ;
38 -> 42 ;
43 [label="('m', 'm') <= 0.5\nentropy = 0.513\nsamples = 35\nvalue = [31, 4]"] ;
31 -> 43 ;
44 [label="('have', 'e') <= 0.5\nentropy = 0.216\nsamples = 29\nvalue = [28, 1]"] ;
43 -> 44 ;
45 [label="entropy = 0.0\nsamples = 23\nvalue = [23, 0]"] ;
44 -> 45 ;
46 [label="entropy = 0.65\nsamples = 6\nvalue = [5, 1]"] ;
44 -> 46 ;
47 [label="entropy = 1.0\nsamples = 6\nvalue = [3, 3]"] ;
43 -> 47 ;
48 [label="('emissions', 's') <= 0.5\nentropy = 0.796\nsamples = 137\nvalue = [104, 33]"] ;
30 -> 48 ;
49 [label="('to', 'o') <= 1.5\nentropy = 0.725\nsamples = 129\nvalue = [103, 26]"] ;
48 -> 49 ;
50 [label="('for', 'r') <= 0.5\nentropy = 0.674\nsamples = 124\nvalue = [102, 22]"] ;
49 -> 50 ;
51 [label="('not', 't') <= 0.5\nentropy = 0.722\nsamples = 110\nvalue = [88, 22]"] ;
50 -> 51 ;
52 [label="entropy = 0.668\nsamples = 103\nvalue = [85, 18]"] ;
51 -> 52 ;
53 [label="entropy = 0.985\nsamples = 7\nvalue = [3, 4]"] ;
51 -> 53 ;
54 [label="entropy = 0.0\nsamples = 14\nvalue = [14, 0]"] ;
50 -> 54 ;
55 [label="entropy = 0.722\nsamples = 5\nvalue = [1, 4]"] ;
49 -> 55 ;
56 [label="entropy = 0.544\nsamples = 8\nvalue = [1, 7]"] ;
48 -> 56 ;
57 [label="('s', 's') <= 0.5\nentropy = 0.909\nsamples = 37\nvalue = [12, 25]"] ;
29 -> 57 ;
58 [label="('global', 'l') <= 0.5\nentropy = 0.811\nsamples = 32\nvalue = [8, 24]"] ;
57 -> 58 ;
59 [label="('be', 'e') <= 0.5\nentropy = 0.904\nsamples = 25\nvalue = [8, 17]"] ;
58 -> 59 ;
60 [label="('and', 'd') <= 0.5\nentropy = 0.964\nsamples = 18\nvalue = [7, 11]"] ;
59 -> 60 ;
61 [label="('ch', 'h') <= 0.5\nentropy = 1.0\nsamples = 12\nvalue = [6, 6]"] ;
60 -> 61 ;
62 [label="entropy = 0.985\nsamples = 7\nvalue = [3, 4]"] ;
61 -> 62 ;
63 [label="entropy = 0.971\nsamples = 5\nvalue = [3, 2]"] ;
61 -> 63 ;
64 [label="entropy = 0.65\nsamples = 6\nvalue = [1, 5]"] ;
60 -> 64 ;
65 [label="entropy = 0.592\nsamples = 7\nvalue = [1, 6]"] ;
59 -> 65 ;
66 [label="entropy = 0.0\nsamples = 7\nvalue = [0, 7]"] ;
58 -> 66 ;
67 [label="entropy = 0.722\nsamples = 5\nvalue = [4, 1]"] ;
57 -> 67 ;
68 [label="('out', 't') <= 0.5\nentropy = 0.966\nsamples = 92\nvalue = [36, 56]"] ;
2 -> 68 ;
69 [label="('about', 't') <= 0.5\nentropy = 0.994\nsamples = 75\nvalue = [34, 41]"] ;
68 -> 69 ;
70 [label="('future', 'e') <= 0.5\nentropy = 1.0\nsamples = 64\nvalue = [32, 32]"] ;
69 -> 70 ;
71 [label="('t', 't') <= 0.5\nentropy = 0.997\nsamples = 58\nvalue = [27, 31]"] ;
70 -> 71 ;
72 [label="('planet', 't') <= 0.5\nentropy = 0.995\nsamples = 35\nvalue = [19, 16]"] ;
71 -> 72 ;
73 [label="('s', 's') <= 0.5\nentropy = 0.951\nsamples = 27\nvalue = [17, 10]"] ;
72 -> 73 ;
74 [label="('to', 'o') <= 0.5\nentropy = 0.998\nsamples = 21\nvalue = [11, 10]"] ;
73 -> 74 ;
75 [label="entropy = 0.98\nsamples = 12\nvalue = [7, 5]"] ;
74 -> 75 ;
76 [label="entropy = 0.991\nsamples = 9\nvalue = [4, 5]"] ;
74 -> 76 ;
77 [label="entropy = 0.0\nsamples = 6\nvalue = [6, 0]"] ;
73 -> 77 ;
78 [label="entropy = 0.811\nsamples = 8\nvalue = [2, 6]"] ;
72 -> 78 ;
79 [label="('s', 's') <= 0.5\nentropy = 0.932\nsamples = 23\nvalue = [8, 15]"] ;
71 -> 79 ;
80 [label="('we', 'e') <= 0.5\nentropy = 0.997\nsamples = 15\nvalue = [7, 8]"] ;
79 -> 80 ;
81 [label="entropy = 0.863\nsamples = 7\nvalue = [2, 5]"] ;
80 -> 81 ;
82 [label="entropy = 0.954\nsamples = 8\nvalue = [5, 3]"] ;
80 -> 82 ;
83 [label="entropy = 0.544\nsamples = 8\nvalue = [1, 7]"] ;
79 -> 83 ;
84 [label="entropy = 0.65\nsamples = 6\nvalue = [5, 1]"] ;
70 -> 84 ;
85 [label="('to', 'o') <= 0.5\nentropy = 0.684\nsamples = 11\nvalue = [2, 9]"] ;
69 -> 85 ;
86 [label="entropy = 0.918\nsamples = 6\nvalue = [2, 4]"] ;
85 -> 86 ;
87 [label="entropy = 0.0\nsamples = 5\nvalue = [0, 5]"] ;
85 -> 87 ;
88 [label="('proposal', 'l') <= 0.5\nentropy = 0.523\nsamples = 17\nvalue = [2, 15]"] ;
68 -> 88 ;
89 [label="entropy = 0.0\nsamples = 5\nvalue = [0, 5]"] ;
88 -> 89 ;
90 [label="entropy = 0.65\nsamples = 12\nvalue = [2, 10]"] ;
88 -> 90 ;
91 [label="('my', 'y') <= 0.5\nentropy = 0.857\nsamples = 270\nvalue = [76, 194]"] ;
1 -> 91 ;
92 [label="('years', 's') <= 0.5\nentropy = 0.84\nsamples = 264\nvalue = [71, 193]"] ;
91 -> 92 ;
93 [label="('uxsj1nrzcv', 'v') <= 0.5\nentropy = 0.853\nsamples = 255\nvalue = [71, 184]"] ;
92 -> 93 ;
94 [label="('when', 'n') <= 0.5\nentropy = 0.874\nsamples = 238\nvalue = [70, 168]"] ;
93 -> 94 ;
95 [label="('plan', 'n') <= 0.5\nentropy = 0.887\nsamples = 230\nvalue = [70, 160]"] ;
94 -> 95 ;
96 [label="('#actonclimate', 'e') <= 0.5\nentropy = 0.899\nsamples = 222\nvalue = [70, 152]"] ;
95 -> 96 ;
97 [label="('need', 'd') <= 0.5\nentropy = 0.912\nsamples = 214\nvalue = [70, 144]"] ;
96 -> 97 ;
98 [label="('co', 'o') <= 1.5\nentropy = 0.9\nsamples = 209\nvalue = [66, 143]"] ;
97 -> 98 ;
99 [label="entropy = 0.873\nsamples = 191\nvalue = [56, 135]"] ;
98 -> 99 ;
100 [label="entropy = 0.991\nsamples = 18\nvalue = [10, 8]"] ;
98 -> 100 ;
101 [label="entropy = 0.722\nsamples = 5\nvalue = [4, 1]"] ;
97 -> 101 ;
102 [label="entropy = 0.0\nsamples = 8\nvalue = [0, 8]"] ;
96 -> 102 ;
103 [label="entropy = 0.0\nsamples = 8\nvalue = [0, 8]"] ;
95 -> 103 ;
104 [label="entropy = 0.0\nsamples = 8\nvalue = [0, 8]"] ;
94 -> 104 ;
105 [label="entropy = 0.323\nsamples = 17\nvalue = [1, 16]"] ;
93 -> 105 ;
106 [label="entropy = 0.0\nsamples = 9\nvalue = [0, 9]"] ;
92 -> 106 ;
107 [label="entropy = 0.65\nsamples = 6\nvalue = [5, 1]"] ;
91 -> 107 ;
108 [label="('12', '2') <= 0.5\nentropy = 0.956\nsamples = 1088\nvalue = [410, 678]"] ;
0 -> 108 [labeldistance=2.5, labelangle=-45, headlabel="False"] ;
109 [label="('rt', 't') <= 0.5\nentropy = 0.963\nsamples = 1060\nvalue = [410, 650]"] ;
108 -> 109 ;
110 [label="('could', 'd') <= 0.5\nentropy = 0.992\nsamples = 559\nvalue = [250, 309]"] ;
109 -> 110 ;
111 [label="('responsible', 'e') <= 0.5\nentropy = 0.995\nsamples = 542\nvalue = [249, 293]"] ;
110 -> 111 ;
112 [label="('always', 's') <= 0.5\nentropy = 0.994\nsamples = 536\nvalue = [243, 293]"] ;
111 -> 112 ;
113 [label="('solar', 'r') <= 0.5\nentropy = 0.992\nsamples = 531\nvalue = [238, 293]"] ;
112 -> 113 ;
114 [label="('when', 'n') <= 1.5\nentropy = 0.991\nsamples = 526\nvalue = [233, 293]"] ;
113 -> 114 ;
115 [label="('gop', 'p') <= 0.5\nentropy = 0.989\nsamples = 521\nvalue = [228, 293]"] ;
114 -> 115 ;
116 [label="('opinion', 'n') <= 0.5\nentropy = 0.991\nsamples = 513\nvalue = [228, 285]"] ;
115 -> 116 ;
117 [label="entropy = 0.993\nsamples = 507\nvalue = [228, 279]"] ;
116 -> 117 ;
118 [label="entropy = 0.0\nsamples = 6\nvalue = [0, 6]"] ;
116 -> 118 ;
119 [label="entropy = 0.0\nsamples = 8\nvalue = [0, 8]"] ;
115 -> 119 ;
120 [label="entropy = 0.0\nsamples = 5\nvalue = [5, 0]"] ;
114 -> 120 ;
121 [label="entropy = 0.0\nsamples = 5\nvalue = [5, 0]"] ;
113 -> 121 ;
122 [label="entropy = 0.0\nsamples = 5\nvalue = [5, 0]"] ;
112 -> 122 ;
123 [label="entropy = 0.0\nsamples = 6\nvalue = [6, 0]"] ;
111 -> 123 ;
124 [label="('to', 'o') <= 0.5\nentropy = 0.323\nsamples = 17\nvalue = [1, 16]"] ;
110 -> 124 ;
125 [label="entropy = 0.722\nsamples = 5\nvalue = [1, 4]"] ;
124 -> 125 ;
126 [label="entropy = 0.0\nsamples = 12\nvalue = [0, 12]"] ;
124 -> 126 ;
127 [label="('world', 'd') <= 0.5\nentropy = 0.904\nsamples = 501\nvalue = [160, 341]"] ;
109 -> 127 ;
128 [label="('only', 'y') <= 0.5\nentropy = 0.917\nsamples = 476\nvalue = [158, 318]"] ;
127 -> 128 ;
129 [label="('some', 'e') <= 0.5\nentropy = 0.927\nsamples = 458\nvalue = [157, 301]"] ;
128 -> 129 ;
130 [label="('as', 's') <= 0.5\nentropy = 0.918\nsamples = 450\nvalue = [150, 300]"] ;
129 -> 130 ;
131 [label="('and', 'd') <= 1.5\nentropy = 0.907\nsamples = 434\nvalue = [140, 294]"] ;
130 -> 131 ;
132 [label="('big', 'g') <= 0.5\nentropy = 0.897\nsamples = 424\nvalue = [133, 291]"] ;
131 -> 132 ;
133 [label="('more', 'e') <= 0.5\nentropy = 0.903\nsamples = 417\nvalue = [133, 284]"] ;
132 -> 133 ;
134 [label="entropy = 0.893\nsamples = 407\nvalue = [126, 281]"] ;
133 -> 134 ;
135 [label="entropy = 0.881\nsamples = 10\nvalue = [7, 3]"] ;
133 -> 135 ;
136 [label="entropy = 0.0\nsamples = 7\nvalue = [0, 7]"] ;
132 -> 136 ;
137 [label="('of', 'f') <= 0.5\nentropy = 0.881\nsamples = 10\nvalue = [7, 3]"] ;
131 -> 137 ;
138 [label="entropy = 0.722\nsamples = 5\nvalue = [4, 1]"] ;
137 -> 138 ;
139 [label="entropy = 0.971\nsamples = 5\nvalue = [3, 2]"] ;
137 -> 139 ;
140 [label="('t', 't') <= 0.5\nentropy = 0.954\nsamples = 16\nvalue = [10, 6]"] ;
130 -> 140 ;
141 [label="entropy = 0.881\nsamples = 10\nvalue = [7, 3]"] ;
140 -> 141 ;
142 [label="entropy = 1.0\nsamples = 6\nvalue = [3, 3]"] ;
140 -> 142 ;
143 [label="entropy = 0.544\nsamples = 8\nvalue = [7, 1]"] ;
129 -> 143 ;
144 [label="('it', 't') <= 0.5\nentropy = 0.31\nsamples = 18\nvalue = [1, 17]"] ;
128 -> 144 ;
145 [label="entropy = 0.414\nsamples = 12\nvalue = [1, 11]"] ;
144 -> 145 ;
146 [label="entropy = 0.0\nsamples = 6\nvalue = [0, 6]"] ;
144 -> 146 ;
147 [label="('to', 'o') <= 0.5\nentropy = 0.402\nsamples = 25\nvalue = [2, 23]"] ;
127 -> 147 ;
148 [label="('in', 'n') <= 0.5\nentropy = 0.619\nsamples = 13\nvalue = [2, 11]"] ;
147 -> 148 ;
149 [label="entropy = 0.65\nsamples = 6\nvalue = [1, 5]"] ;
148 -> 149 ;
150 [label="entropy = 0.592\nsamples = 7\nvalue = [1, 6]"] ;
148 -> 150 ;
151 [label="entropy = 0.0\nsamples = 12\nvalue = [0, 12]"] ;
147 -> 151 ;
152 [label="entropy = 0.0\nsamples = 28\nvalue = [0, 28]"] ;
108 -> 152 ;
}
