digraph Tree {
node [shape=box] ;
0 [label="change <= 0.5\nentropy = 0.998\nsamples = 2307\nvalue = [1094, 1213]"] ;
1 [label="#climatechange <= 0.5\nentropy = 0.99\nsamples = 1237\nvalue = [692, 545]"] ;
0 -> 1 [labeldistance=2.5, labelangle=45, headlabel="True"] ;
2 [label="report <= 0.5\nentropy = 0.945\nsamples = 967\nvalue = [616, 351]"] ;
1 -> 2 ;
3 [label="#climatechangeisreal <= 0.5\nentropy = 0.931\nsamples = 918\nvalue = [600, 318]"] ;
2 -> 3 ;
4 [label="emissions <= 0.5\nentropy = 0.923\nsamples = 905\nvalue = [599, 306]"] ;
3 -> 4 ;
5 [label="jeopardize health <= 0.5\nentropy = 0.91\nsamples = 876\nvalue = [591, 285]"] ;
4 -> 5 ;
6 [label="climate <= 0.5\nentropy = 0.902\nsamples = 863\nvalue = [589, 274]"] ;
5 -> 6 ;
7 [label="entropy = 0.881\nsamples = 790\nvalue = [553, 237]"] ;
6 -> 7 ;
8 [label="entropy = 1.0\nsamples = 73\nvalue = [36, 37]"] ;
6 -> 8 ;
9 [label="entropy = 0.619\nsamples = 13\nvalue = [2, 11]"] ;
5 -> 9 ;
10 [label="reductions <= 0.5\nentropy = 0.85\nsamples = 29\nvalue = [8, 21]"] ;
4 -> 10 ;
11 [label="just companies <= 0.5\nentropy = 0.764\nsamples = 27\nvalue = [6, 21]"] ;
10 -> 11 ;
12 [label="entropy = 0.845\nsamples = 22\nvalue = [6, 16]"] ;
11 -> 12 ;
13 [label="entropy = 0.0\nsamples = 5\nvalue = [0, 5]"] ;
11 -> 13 ;
14 [label="entropy = 0.0\nsamples = 2\nvalue = [2, 0]"] ;
10 -> 14 ;
15 [label="#climateactionnow <= 0.5\nentropy = 0.391\nsamples = 13\nvalue = [1, 12]"] ;
3 -> 15 ;
16 [label="entropy = 0.0\nsamples = 11\nvalue = [0, 11]"] ;
15 -> 16 ;
17 [label="entropy = 1.0\nsamples = 2\nvalue = [1, 1]"] ;
15 -> 17 ;
18 [label="getting <= 0.5\nentropy = 0.911\nsamples = 49\nvalue = [16, 33]"] ;
2 -> 18 ;
19 [label="report warning <= 0.5\nentropy = 0.879\nsamples = 47\nvalue = [14, 33]"] ;
18 -> 19 ;
20 [label="world <= 0.5\nentropy = 0.91\nsamples = 43\nvalue = [14, 29]"] ;
19 -> 20 ;
21 [label="@ipcc_ch report <= 0.5\nentropy = 0.858\nsamples = 39\nvalue = [11, 28]"] ;
20 -> 21 ;
22 [label="entropy = 0.898\nsamples = 35\nvalue = [11, 24]"] ;
21 -> 22 ;
23 [label="entropy = 0.0\nsamples = 4\nvalue = [0, 4]"] ;
21 -> 23 ;
24 [label="rise <= 0.5\nentropy = 0.811\nsamples = 4\nvalue = [3, 1]"] ;
20 -> 24 ;
25 [label="entropy = 0.0\nsamples = 2\nvalue = [2, 0]"] ;
24 -> 25 ;
26 [label="entropy = 1.0\nsamples = 2\nvalue = [1, 1]"] ;
24 -> 26 ;
27 [label="entropy = 0.0\nsamples = 4\nvalue = [0, 4]"] ;
19 -> 27 ;
28 [label="entropy = 0.0\nsamples = 2\nvalue = [2, 0]"] ;
18 -> 28 ;
29 [label="political <= 0.5\nentropy = 0.857\nsamples = 270\nvalue = [76, 194]"] ;
1 -> 29 ;
30 [label="#ipccreport <= 0.5\nentropy = 0.842\nsamples = 266\nvalue = [72, 194]"] ;
29 -> 30 ;
31 [label="going <= 0.5\nentropy = 0.83\nsamples = 263\nvalue = [69, 194]"] ;
30 -> 31 ;
32 [label="@scottmorrisonmp <= 0.5\nentropy = 0.817\nsamples = 260\nvalue = [66, 194]"] ;
31 -> 32 ;
33 [label="fraud <= 0.5\nentropy = 0.808\nsamples = 258\nvalue = [64, 194]"] ;
32 -> 33 ;
34 [label="entropy = 0.799\nsamples = 256\nvalue = [62, 194]"] ;
33 -> 34 ;
35 [label="entropy = 0.0\nsamples = 2\nvalue = [2, 0]"] ;
33 -> 35 ;
36 [label="entropy = 0.0\nsamples = 2\nvalue = [2, 0]"] ;
32 -> 36 ;
37 [label="entropy = 0.0\nsamples = 3\nvalue = [3, 0]"] ;
31 -> 37 ;
38 [label="entropy = 0.0\nsamples = 3\nvalue = [3, 0]"] ;
30 -> 38 ;
39 [label="entropy = 0.0\nsamples = 4\nvalue = [4, 0]"] ;
29 -> 39 ;
40 [label="don <= 0.5\nentropy = 0.955\nsamples = 1070\nvalue = [402, 668]"] ;
0 -> 40 [labeldistance=2.5, labelangle=-45, headlabel="False"] ;
41 [label="discussions <= 0.5\nentropy = 0.96\nsamples = 1042\nvalue = [399, 643]"] ;
40 -> 41 ;
42 [label="years <= 0.5\nentropy = 0.958\nsamples = 1037\nvalue = [394, 643]"] ;
41 -> 42 ;
43 [label="major <= 0.5\nentropy = 0.965\nsamples = 975\nvalue = [381, 594]"] ;
42 -> 43 ;
44 [label="week <= 0.5\nentropy = 0.968\nsamples = 965\nvalue = [381, 584]"] ;
43 -> 44 ;
45 [label="opinion <= 0.5\nentropy = 0.97\nsamples = 957\nvalue = [381, 576]"] ;
44 -> 45 ;
46 [label="entropy = 0.972\nsamples = 949\nvalue = [381, 568]"] ;
45 -> 46 ;
47 [label="entropy = 0.0\nsamples = 8\nvalue = [0, 8]"] ;
45 -> 47 ;
48 [label="entropy = 0.0\nsamples = 8\nvalue = [0, 8]"] ;
44 -> 48 ;
49 [label="entropy = 0.0\nsamples = 10\nvalue = [0, 10]"] ;
43 -> 49 ;
50 [label="thousands <= 0.5\nentropy = 0.741\nsamples = 62\nvalue = [13, 49]"] ;
42 -> 50 ;
51 [label="trump <= 0.5\nentropy = 0.687\nsamples = 60\nvalue = [11, 49]"] ;
50 -> 51 ;
52 [label="ago <= 0.5\nentropy = 0.623\nsamples = 58\nvalue = [9, 49]"] ;
51 -> 52 ;
53 [label="entropy = 0.503\nsamples = 54\nvalue = [6, 48]"] ;
52 -> 53 ;
54 [label="entropy = 0.811\nsamples = 4\nvalue = [3, 1]"] ;
52 -> 54 ;
55 [label="entropy = 0.0\nsamples = 2\nvalue = [2, 0]"] ;
51 -> 55 ;
56 [label="entropy = 0.0\nsamples = 2\nvalue = [2, 0]"] ;
50 -> 56 ;
57 [label="entropy = 0.0\nsamples = 5\nvalue = [5, 0]"] ;
41 -> 57 ;
58 [label="understand <= 0.5\nentropy = 0.491\nsamples = 28\nvalue = [3, 25]"] ;
40 -> 58 ;
59 [label="shit <= 0.5\nentropy = 0.391\nsamples = 26\nvalue = [2, 24]"] ;
58 -> 59 ;
60 [label="point <= 0.5\nentropy = 0.258\nsamples = 23\nvalue = [1, 22]"] ;
59 -> 60 ;
61 [label="entropy = 0.0\nsamples = 20\nvalue = [0, 20]"] ;
60 -> 61 ;
62 [label="entropy = 0.918\nsamples = 3\nvalue = [1, 2]"] ;
60 -> 62 ;
63 [label="entropy = 0.918\nsamples = 3\nvalue = [1, 2]"] ;
59 -> 63 ;
64 [label="entropy = 1.0\nsamples = 2\nvalue = [1, 1]"] ;
58 -> 64 ;
}
