digraph Tree {
node [shape=box] ;
0 [label="climate <= 0.5\nentropy = 0.998\nsamples = 2307\nvalue = [1094, 1213]"] ;
1 [label="#climatechange <= 0.5\nentropy = 0.987\nsamples = 1163\nvalue = [660, 503]"] ;
0 -> 1 [labeldistance=2.5, labelangle=45, headlabel="True"] ;
2 [label="emissions <= 0.5\nentropy = 0.94\nsamples = 900\nvalue = [579, 321]"] ;
1 -> 2 ;
3 [label="communities <= 0.5\nentropy = 0.929\nsamples = 877\nvalue = [575, 302]"] ;
2 -> 3 ;
4 [label="threat <= 0.5\nentropy = 0.921\nsamples = 861\nvalue = [572, 289]"] ;
3 -> 4 ;
5 [label="limiting <= 0.5\nentropy = 0.916\nsamples = 855\nvalue = [572, 283]"] ;
4 -> 5 ;
6 [label="measures <= 0.5\nentropy = 0.912\nsamples = 850\nvalue = [572, 278]"] ;
5 -> 6 ;
7 [label="entropy = 0.908\nsamples = 845\nvalue = [572, 273]"] ;
6 -> 7 ;
8 [label="entropy = 0.0\nsamples = 5\nvalue = [0, 5]"] ;
6 -> 8 ;
9 [label="entropy = 0.0\nsamples = 5\nvalue = [0, 5]"] ;
5 -> 9 ;
10 [label="entropy = 0.0\nsamples = 6\nvalue = [0, 6]"] ;
4 -> 10 ;
11 [label="speak administration <= 0.5\nentropy = 0.696\nsamples = 16\nvalue = [3, 13]"] ;
3 -> 11 ;
12 [label="entropy = 0.0\nsamples = 2\nvalue = [0, 2]"] ;
11 -> 12 ;
13 [label="entropy = 0.75\nsamples = 14\nvalue = [3, 11]"] ;
11 -> 13 ;
14 [label="prevent <= 0.5\nentropy = 0.667\nsamples = 23\nvalue = [4, 19]"] ;
2 -> 14 ;
15 [label="australia <= 0.5\nentropy = 0.454\nsamples = 21\nvalue = [2, 19]"] ;
14 -> 15 ;
16 [label="study <= 0.5\nentropy = 0.297\nsamples = 19\nvalue = [1, 18]"] ;
15 -> 16 ;
17 [label="entropy = 0.0\nsamples = 15\nvalue = [0, 15]"] ;
16 -> 17 ;
18 [label="entropy = 0.811\nsamples = 4\nvalue = [1, 3]"] ;
16 -> 18 ;
19 [label="entropy = 1.0\nsamples = 2\nvalue = [1, 1]"] ;
15 -> 19 ;
20 [label="entropy = 0.0\nsamples = 2\nvalue = [2, 0]"] ;
14 -> 20 ;
21 [label="catastrophic <= 0.5\nentropy = 0.891\nsamples = 263\nvalue = [81, 182]"] ;
1 -> 21 ;
22 [label="political <= 0.5\nentropy = 0.932\nsamples = 204\nvalue = [71, 133]"] ;
21 -> 22 ;
23 [label="taking <= 0.5\nentropy = 0.923\nsamples = 201\nvalue = [68, 133]"] ;
22 -> 23 ;
24 [label="limit <= 0.5\nentropy = 0.913\nsamples = 198\nvalue = [65, 133]"] ;
23 -> 24 ;
25 [label="@scottmorrisonmp <= 0.5\nentropy = 0.923\nsamples = 192\nvalue = [65, 127]"] ;
24 -> 25 ;
26 [label="entropy = 0.917\nsamples = 190\nvalue = [63, 127]"] ;
25 -> 26 ;
27 [label="entropy = 0.0\nsamples = 2\nvalue = [2, 0]"] ;
25 -> 27 ;
28 [label="entropy = 0.0\nsamples = 6\nvalue = [0, 6]"] ;
24 -> 28 ;
29 [label="entropy = 0.0\nsamples = 3\nvalue = [3, 0]"] ;
23 -> 29 ;
30 [label="entropy = 0.0\nsamples = 3\nvalue = [3, 0]"] ;
22 -> 30 ;
31 [label="https yvpjung6y <= 0.5\nentropy = 0.657\nsamples = 59\nvalue = [10, 49]"] ;
21 -> 31 ;
32 [label="#globalwarming <= 0.5\nentropy = 0.475\nsamples = 49\nvalue = [5, 44]"] ;
31 -> 32 ;
33 [label="entropy = 0.0\nsamples = 4\nvalue = [0, 4]"] ;
32 -> 33 ;
34 [label="#demandclimateaction <= 0.5\nentropy = 0.503\nsamples = 45\nvalue = [5, 40]"] ;
32 -> 34 ;
35 [label="dangerous <= 0.5\nentropy = 0.535\nsamples = 41\nvalue = [5, 36]"] ;
34 -> 35 ;
36 [label="entropy = 0.562\nsamples = 38\nvalue = [5, 33]"] ;
35 -> 36 ;
37 [label="entropy = 0.0\nsamples = 3\nvalue = [0, 3]"] ;
35 -> 37 ;
38 [label="entropy = 0.0\nsamples = 4\nvalue = [0, 4]"] ;
34 -> 38 ;
39 [label="entropy = 1.0\nsamples = 10\nvalue = [5, 5]"] ;
31 -> 39 ;
40 [label="years <= 0.5\nentropy = 0.958\nsamples = 1144\nvalue = [434, 710]"] ;
0 -> 40 [labeldistance=2.5, labelangle=-45, headlabel="False"] ;
41 [label="cooling <= 0.5\nentropy = 0.966\nsamples = 1079\nvalue = [422, 657]"] ;
40 -> 41 ;
42 [label="jobs <= 0.5\nentropy = 0.964\nsamples = 1074\nvalue = [417, 657]"] ;
41 -> 42 ;
43 [label="don <= 0.5\nentropy = 0.962\nsamples = 1069\nvalue = [412, 657]"] ;
42 -> 43 ;
44 [label="house <= 0.5\nentropy = 0.966\nsamples = 1037\nvalue = [407, 630]"] ;
43 -> 44 ;
45 [label="republican <= 0.5\nentropy = 0.968\nsamples = 1029\nvalue = [407, 622]"] ;
44 -> 45 ;
46 [label="entropy = 0.97\nsamples = 1021\nvalue = [407, 614]"] ;
45 -> 46 ;
47 [label="entropy = 0.0\nsamples = 8\nvalue = [0, 8]"] ;
45 -> 47 ;
48 [label="entropy = 0.0\nsamples = 8\nvalue = [0, 8]"] ;
44 -> 48 ;
49 [label="climate change <= 0.5\nentropy = 0.625\nsamples = 32\nvalue = [5, 27]"] ;
43 -> 49 ;
50 [label="entropy = 0.0\nsamples = 3\nvalue = [3, 0]"] ;
49 -> 50 ;
51 [label="government <= 0.5\nentropy = 0.362\nsamples = 29\nvalue = [2, 27]"] ;
49 -> 51 ;
52 [label="entropy = 0.229\nsamples = 27\nvalue = [1, 26]"] ;
51 -> 52 ;
53 [label="entropy = 1.0\nsamples = 2\nvalue = [1, 1]"] ;
51 -> 53 ;
54 [label="entropy = 0.0\nsamples = 5\nvalue = [5, 0]"] ;
42 -> 54 ;
55 [label="entropy = 0.0\nsamples = 5\nvalue = [5, 0]"] ;
41 -> 55 ;
56 [label="hurricanes <= 0.5\nentropy = 0.69\nsamples = 65\nvalue = [12, 53]"] ;
40 -> 56 ;
57 [label="hurricane <= 0.5\nentropy = 0.631\nsamples = 63\nvalue = [10, 53]"] ;
56 -> 57 ;
58 [label="saying <= 0.5\nentropy = 0.561\nsamples = 61\nvalue = [8, 53]"] ;
57 -> 58 ;
59 [label="make <= 0.5\nentropy = 0.474\nsamples = 59\nvalue = [6, 53]"] ;
58 -> 59 ;
60 [label="gore <= 0.5\nentropy = 0.371\nsamples = 56\nvalue = [4, 52]"] ;
59 -> 60 ;
61 [label="entropy = 0.31\nsamples = 54\nvalue = [3, 51]"] ;
60 -> 61 ;
62 [label="entropy = 1.0\nsamples = 2\nvalue = [1, 1]"] ;
60 -> 62 ;
63 [label="entropy = 0.918\nsamples = 3\nvalue = [2, 1]"] ;
59 -> 63 ;
64 [label="entropy = 0.0\nsamples = 2\nvalue = [2, 0]"] ;
58 -> 64 ;
65 [label="entropy = 0.0\nsamples = 2\nvalue = [2, 0]"] ;
57 -> 65 ;
66 [label="entropy = 0.0\nsamples = 2\nvalue = [2, 0]"] ;
56 -> 66 ;
}
